{"learner":{"attributes":{"best_iteration":"58","best_score":"24.118385919208688","scikit_learn":"{\"_estimator_type\": \"regressor\"}"},"feature_names":["hour_sin","hour_cos","manggarai_air_lag1","manggarai_air_lag2","manggarai_air_lag3","manggarai_air_lag4","manggarai_air_lag5","manggarai_air_lag6","depok_air_lag6","depok_air_lag7","depok_air_lag8","depok_air_lag9","katulampa_air_lag11","katulampa_air_lag12","katulampa_air_lag13","manggarai_cuaca_lag1_hujan","manggarai_cuaca_lag2_hujan","manggarai_cuaca_lag3_hujan","manggarai_cuaca_lag4_hujan","manggarai_cuaca_lag5_hujan","manggarai_cuaca_lag6_hujan","depok_cuaca_lag6_hujan","depok_cuaca_lag7_hujan","depok_cuaca_lag8_hujan","depok_cuaca_lag9_hujan","katulampa_cuaca_lag11_hujan","katulampa_cuaca_lag12_hujan","katulampa_cuaca_lag13_hujan"],"feature_types":["float","float","float","float","float","float","float","float","float","float","float","float","float","float","float","int","int","int","int","int","int","int","int","int","int","int","int","int"],"gradient_booster":{"model":{"gbtree_model_param":{"num_parallel_tree":"1","num_trees":"109"},"iteration_indptr":[0,1,2,3,4,5,6,7,8,9,10,11,12,13,14,15,16,17,18,19,20,21,22,23,24,25,26,27,28,29,30,31,32,33,34,35,36,37,38,39,40,41,42,43,44,45,46,47,48,49,50,51,52,53,54,55,56,57,58,59,60,61,62,63,64,65,66,67,68,69,70,71,72,73,74,75,76,77,78,79,80,81,82,83,84,85,86,87,88,89,90,91,92,93,94,95,96,97,98,99,100,101,102,103,104,105,106,107,108,109],"tree_info":[0,0,0,0,0,0,0,0,0,0,0,0,0,0,0,0,0,0,0,0,0,0,0,0,0,0,0,0,0,0,0,0,0,0,0,0,0,0,0,0,0,0,0,0,0,0,0,0,0,0,0,0,0,0,0,0,0,0,0,0,0,0,0,0,0,0,0,0,0,0,0,0,0,0,0,0,0,0,0,0,0,0,0,0,0,0,0,0,0,0,0,0,0,0,0,0,0,0,0,0,0,0,0,0,0,0,0,0,0],"trees":[{"base_weights":[-1.3094476E-2,-2.6739641E1,4.1163967E1,-4.7978237E1,-1.4800625E1,2.8915281E1,9.729291E1,-6.3891212E1,-3.9887386E1,-2.3322226E1,-3.616861E0,1.9758776E1,5.06974E1,8.1988945E1,1.414114E2,-3.180911E0,-8.337508E0,-2.0180624E0,1.7772621E0,-1.3354856E0,-8.5355157E-1,-3.9419267E-1,9.481277E-2,7.264879E-1,1.3668028E0,2.161351E0,2.807495E0,3.7678487E0,5.1795E0,6.0883517E0,8.128747E0],"categories":[],"categories_nodes":[],"categories_segments":[],"categories_sizes":[],"default_left":[0,0,0,0,0,0,0,0,0,0,0,0,0,0,0,0,0,0,0,0,0,0,0,0,0,0,0,0,0,0,0],"id":0,"left_children":[1,3,5,7,9,11,13,15,17,19,21,23,25,27,29,-1,-1,-1,-1,-1,-1,-1,-1,-1,-1,-1,-1,-1,-1,-1,-1],"loss_changes":[2.6151666E7,3.653173E6,6.427367E6,6.64966E5,8.791729E5,1.530525E6,1.119234E6,3.8304E4,1.243985E5,1.1039875E5,9.390394E4,2.1385625E5,9.0067E4,1.706035E5,1.58832E5,0E0,0E0,0E0,0E0,0E0,0E0,0E0,0E0,0E0,0E0,0E0,0E0,0E0,0E0,0E0,0E0],"parents":[2147483647,0,0,1,1,2,2,3,3,4,4,5,5,6,6,7,7,8,8,9,9,10,10,11,11,12,12,13,13,14,14],"right_children":[2,4,6,8,10,12,14,16,18,20,22,24,26,28,30,-1,-1,-1,-1,-1,-1,-1,-1,-1,-1,-1,-1,-1,-1,-1,-1],"split_conditions":[6.35E2,5.95E2,6.94E2,5.75E2,6.15E2,6.65E2,7.45E2,5.925E2,6.25E2,6.05E2,6.25E2,6.5E2,6.8E2,7.25E2,7.7E2,-3.180911E0,-8.337508E0,-2.0180624E0,1.7772621E0,-1.3354856E0,-8.5355157E-1,-3.9419267E-1,9.481277E-2,7.264879E-1,1.3668028E0,2.161351E0,2.807495E0,3.7678487E0,5.1795E0,6.0883517E0,8.128747E0],"split_indices":[2,2,2,5,2,2,2,4,3,2,2,2,2,2,2,0,0,0,0,0,0,0,0,0,0,0,0,0,0,0,0],"split_type":[0,0,0,0,0,0,0,0,0,0,0,0,0,0,0,0,0,0,0,0,0,0,0,0,0,0,0,0,0,0,0],"sum_hessian":[2.3761E4,1.4409E4,9.352E3,5.184E3,9.225E3,7.678E3,1.674E3,1.745E3,3.439E3,5.235E3,3.99E3,5.407E3,2.271E3,1.245E3,4.29E2,1.742E3,3E0,3.418E3,2.1E1,3.393E3,1.842E3,2.249E3,1.741E3,3.201E3,2.206E3,9.62E2,1.309E3,9.56E2,2.89E2,2.26E2,2.03E2],"tree_param":{"num_deleted":"0","num_feature":"28","num_nodes":"31","size_leaf_vector":"1"}},{"base_weights":[1.5017942E-1,-2.5271767E1,3.9237576E1,-4.351993E1,-1.2398441E1,2.6349804E1,8.788411E1,-6.07539E1,-3.6191574E1,-2.0976555E1,-2.8879635E0,1.6628057E1,4.2179443E1,7.207262E1,1.2785107E2,-3.1283774E0,-2.5705202E0,-2.239419E0,-1.643595E0,-1.2067412E0,-8.175182E-1,-3.4023592E-1,1.0303145E-1,6.124317E-1,1.1057434E0,1.7744592E0,2.5329988E0,3.215945E0,4.1818132E0,5.863484E0,8.437361E0],"categories":[],"categories_nodes":[],"categories_segments":[],"categories_sizes":[],"default_left":[0,0,0,0,0,0,0,0,0,0,0,0,0,0,0,0,0,0,0,0,0,0,0,0,0,0,0,0,0,0,0],"id":1,"left_children":[1,3,5,7,9,11,13,15,17,19,21,23,25,27,29,-1,-1,-1,-1,-1,-1,-1,-1,-1,-1,-1,-1,-1,-1,-1,-1],"loss_changes":[2.3674376E7,3.39066E6,5.884017E6,7.5187E5,6.906004E5,1.1417615E6,1.233073E6,2.68895E4,1.181225E5,6.4617875E4,7.78562E4,1.10269625E5,1.58384E5,1.21059E5,2.20671E5,0E0,0E0,0E0,0E0,0E0,0E0,0E0,0E0,0E0,0E0,0E0,0E0,0E0,0E0,0E0,0E0],"parents":[2147483647,0,0,1,1,2,2,3,3,4,4,5,5,6,6,7,7,8,8,9,9,10,10,11,11,12,12,13,13,14,14],"right_children":[2,4,6,8,10,12,14,16,18,20,22,24,26,28,30,-1,-1,-1,-1,-1,-1,-1,-1,-1,-1,-1,-1,-1,-1,-1,-1],"split_conditions":[6.35E2,5.98E2,6.9E2,5.75E2,6.15E2,6.58E2,7.325E2,5.65E2,5.85E2,6.025E2,6.25E2,6.45E2,6.75E2,7.1E2,7.9E2,-3.1283774E0,-2.5705202E0,-2.239419E0,-1.643595E0,-1.2067412E0,-8.175182E-1,-3.4023592E-1,1.0303145E-1,6.124317E-1,1.1057434E0,1.7744592E0,2.5329988E0,3.215945E0,4.1818132E0,5.863484E0,8.437361E0],"split_indices":[2,2,2,5,2,2,2,6,3,2,2,2,2,2,2,0,0,0,0,0,0,0,0,0,0,0,0,0,0,0,0],"split_type":[0,0,0,0,0,0,0,0,0,0,0,0,0,0,0,0,0,0,0,0,0,0,0,0,0,0,0,0,0,0,0],"sum_hessian":[2.3823E4,1.4435E4,9.388E3,5.97E3,8.465E3,7.423E3,1.965E3,1.779E3,4.191E3,4.45E3,4.015E3,4.6E3,2.823E3,1.41E3,5.55E2,1.485E3,2.94E2,1.164E3,3.027E3,2.642E3,1.808E3,2.241E3,1.774E3,2.56E3,2.04E3,1.581E3,1.242E3,8.48E2,5.62E2,4.44E2,1.11E2],"tree_param":{"num_deleted":"0","num_feature":"28","num_nodes":"31","size_leaf_vector":"1"}},{"base_weights":[5.1197145E-2,-2.3317553E1,3.8621685E1,-4.1091274E1,-1.1325444E1,2.7204268E1,8.841786E1,-5.6792816E1,-3.3895123E1,-2.0073242E1,-2.5053246E0,1.8691217E1,4.6022823E1,7.549963E1,1.3282613E2,-2.9744675E0,-2.3597078E0,-1.7134627E0,1.6831799E0,-1.1596464E0,-7.652803E-1,-3.5042948E-1,1.1606518E-1,6.8577754E-1,1.2517334E0,2.1960428E0,3.2507176E0,3.4067037E0,4.741512E0,6.02474E0,7.949205E0],"categories":[],"categories_nodes":[],"categories_segments":[],"categories_sizes":[],"default_left":[0,0,0,0,0,0,0,0,0,0,0,0,0,0,0,0,0,0,0,0,0,0,0,0,0,0,0,0,0,0,0],"id":2,"left_children":[1,3,5,7,9,11,13,15,17,19,21,23,25,27,29,-1,-1,-1,-1,-1,-1,-1,-1,-1,-1,-1,-1,-1,-1,-1,-1],"loss_changes":[2.1396114E7,3.1502085E6,5.089416E6,6.70889E5,6.81077E5,1.1665095E6,9.47905E5,4.554E4,1.0443E5,6.554525E4,9.558998E4,1.580515E5,8.76675E4,1.77983E5,1.016645E5,0E0,0E0,0E0,0E0,0E0,0E0,0E0,0E0,0E0,0E0,0E0,0E0,0E0,0E0,0E0,0E0],"parents":[2147483647,0,0,1,1,2,2,3,3,4,4,5,5,6,6,7,7,8,8,9,9,10,10,11,11,12,12,13,13,14,14],"right_children":[2,4,6,8,10,12,14,16,18,20,22,24,26,28,30,-1,-1,-1,-1,-1,-1,-1,-1,-1,-1,-1,-1,-1,-1,-1,-1],"split_conditions":[6.4E2,5.98E2,6.94E2,5.8E2,6.15E2,6.65E2,7.5E2,5.65E2,6.3E2,6.05E2,6.25E2,6.5E2,1.375E2,7.25E2,7.9E2,-2.9744675E0,-2.3597078E0,-1.7134627E0,1.6831799E0,-1.1596464E0,-7.652803E-1,-3.5042948E-1,1.1606518E-1,6.8577754E-1,1.2517334E0,2.1960428E0,3.2507176E0,3.4067037E0,4.741512E0,6.02474E0,7.949205E0],"split_indices":[2,2,2,3,2,2,2,2,3,2,2,2,9,2,2,0,0,0,0,0,0,0,0,0,0,0,0,0,0,0,0],"split_type":[0,0,0,0,0,0,0,0,0,0,0,0,0,0,0,0,0,0,0,0,0,0,0,0,0,0,0,0,0,0,0],"sum_hessian":[2.3736E4,1.4781E4,8.955E3,5.954E3,8.827E3,7.286E3,1.669E3,1.869E3,4.085E3,4.431E3,4.396E3,5.018E3,2.268E3,1.295E3,3.74E2,1.455E3,4.14E2,4.063E3,2.2E1,2.676E3,1.755E3,2.274E3,2.122E3,2.814E3,2.204E3,2.045E3,2.23E2,9.41E2,3.54E2,2.58E2,1.16E2],"tree_param":{"num_deleted":"0","num_feature":"28","num_nodes":"31","size_leaf_vector":"1"}},{"base_weights":[-2.8660944E-2,-2.2106146E1,3.4215866E1,-4.051659E1,-1.1734511E1,2.0028214E1,6.490992E1,-5.4445045E1,-3.33486E1,-1.938165E1,-1.8686157E0,1.539274E1,3.2397285E1,5.3300976E1,1.046154E2,-2.7601972E0,-9.354541E-1,-1.6810347E0,2.327559E0,-9.8990005E-1,1.8666731E0,-1.4954253E-1,1.1433554E0,7.008165E-1,1.9303353E0,1.4912854E0,3.223767E0,2.4601893E0,3.9381127E0,4.4169765E0,6.5911064E0],"categories":[],"categories_nodes":[],"categories_segments":[],"categories_sizes":[],"default_left":[0,0,0,0,0,0,0,0,0,0,0,0,0,0,0,0,0,0,0,0,0,0,0,0,0,0,0,0,0,0,0],"id":3,"left_children":[1,3,5,7,9,11,13,15,17,19,21,23,25,27,29,-1,-1,-1,-1,-1,-1,-1,-1,-1,-1,-1,-1,-1,-1,-1,-1],"loss_changes":[1.7831034E7,2.7376695E6,4.024639E6,5.14008E5,6.920935E5,3.6207325E5,1.341208E6,4.6499E4,7.578075E4,1.22764125E5,1.112899E5,1.4647538E5,1.4016225E5,2.32137E5,2.805015E5,0E0,0E0,0E0,0E0,0E0,0E0,0E0,0E0,0E0,0E0,0E0,0E0,0E0,0E0,0E0,0E0],"parents":[2147483647,0,0,1,1,2,2,3,3,4,4,5,5,6,6,7,7,8,8,9,9,10,10,11,11,12,12,13,13,14,14],"right_children":[2,4,6,8,10,12,14,16,18,20,22,24,26,28,30,-1,-1,-1,-1,-1,-1,-1,-1,-1,-1,-1,-1,-1,-1,-1,-1],"split_conditions":[6.35E2,5.95E2,6.8E2,5.75E2,6.15E2,6.58E2,7.3E2,1.025E2,1.65E2,1.45E2,1.2E2,1.3E2,1.375E2,1.375E2,1.55E2,-2.7601972E0,-9.354541E-1,-1.6810347E0,2.327559E0,-9.8990005E-1,1.8666731E0,-1.4954253E-1,1.1433554E0,7.008165E-1,1.9303353E0,1.4912854E0,3.223767E0,2.4601893E0,3.9381127E0,4.4169765E0,6.5911064E0],"split_indices":[3,3,3,5,3,3,3,9,9,9,9,9,9,8,9,0,0,0,0,0,0,0,0,0,0,0,0,0,0,0,0],"split_type":[0,0,0,0,0,0,0,0,0,0,0,0,0,0,0,0,0,0,0,0,0,0,0,0,0,0,0,0,0,0,0],"sum_hessian":[2.3583E4,1.4339E4,9.244E3,5.166E3,9.173E3,6.323E3,2.921E3,1.753E3,3.413E3,5.167E3,4.006E3,4.601E3,1.722E3,2.262E3,6.59E2,1.716E3,3.7E1,3.402E3,1.1E1,5.13E3,3.7E1,3.833E3,1.73E2,4.345E3,2.56E2,1.596E3,1.26E2,1.951E3,3.11E2,4.15E2,2.44E2],"tree_param":{"num_deleted":"0","num_feature":"28","num_nodes":"31","size_leaf_vector":"1"}},{"base_weights":[-1.2868403E-1,-2.125655E1,3.2723934E1,-3.873983E1,-1.1343258E1,2.3861103E1,7.802107E1,-5.2182873E1,-3.1624866E1,-1.8557615E1,-2.065739E0,1.626338E1,4.0640198E1,6.3733204E1,1.10610565E2,-2.625737E0,6.277408E-1,-1.5969764E0,2.655701E0,-9.512591E-1,1.7588711E0,-1.6067299E-1,1.145707E0,7.5583184E-1,2.4159255E0,1.9018649E0,3.162485E0,2.7993963E0,4.0312557E0,4.769282E0,6.7700934E0],"categories":[],"categories_nodes":[],"categories_segments":[],"categories_sizes":[],"default_left":[0,0,0,0,0,0,0,0,0,0,0,0,0,0,0,0,0,0,0,0,0,0,0,0,0,0,0,0,0,0,0],"id":4,"left_children":[1,3,5,7,9,11,13,15,17,19,21,23,25,27,29,-1,-1,-1,-1,-1,-1,-1,-1,-1,-1,-1,-1,-1,-1,-1,-1],"loss_changes":[1.644475E7,2.4985915E6,3.720835E6,4.972965E5,6.159205E5,9.881955E5,6.9923E5,3.9436E4,9.2717E4,1.30731875E5,1.1551758E5,1.95568E5,1.3978475E5,1.33708E5,1.60972E5,0E0,0E0,0E0,0E0,0E0,0E0,0E0,0E0,0E0,0E0,0E0,0E0,0E0,0E0,0E0,0E0],"parents":[2147483647,0,0,1,1,2,2,3,3,4,4,5,5,6,6,7,7,8,8,9,9,10,10,11,11,12,12,13,13,14,14],"right_children":[2,4,6,8,10,12,14,16,18,20,22,24,26,28,30,-1,-1,-1,-1,-1,-1,-1,-1,-1,-1,-1,-1,-1,-1,-1,-1],"split_conditions":[6.35E2,5.925E2,7E2,5.75E2,6.15E2,6.65E2,1.5E2,1.375E2,1.65E2,1.45E2,1.2E2,1.375E2,1.375E2,7.3E2,7.6E2,-2.625737E0,6.277408E-1,-1.5969764E0,2.655701E0,-9.512591E-1,1.7588711E0,-1.6067299E-1,1.145707E0,7.5583184E-1,2.4159255E0,1.9018649E0,3.162485E0,2.7993963E0,4.0312557E0,4.769282E0,6.7700934E0],"split_indices":[3,3,3,5,3,3,9,11,9,9,9,9,9,3,3,0,0,0,0,0,0,0,0,0,0,0,0,0,0,0,0],"split_type":[0,0,0,0,0,0,0,0,0,0,0,0,0,0,0,0,0,0,0,0,0,0,0,0,0,0,0,0,0,0,0],"sum_hessian":[2.369E4,1.4418E4,9.272E3,5.216E3,9.202E3,7.756E3,1.516E3,1.803E3,3.413E3,5.176E3,4.026E3,5.34E3,2.416E3,1.056E3,4.6E2,1.794E3,9E0,3.401E3,1.2E1,5.132E3,4.4E1,3.85E3,1.76E2,5.157E3,1.83E2,2.169E3,2.47E2,7.27E2,3.29E2,2.88E2,1.72E2],"tree_param":{"num_deleted":"0","num_feature":"28","num_nodes":"31","size_leaf_vector":"1"}},{"base_weights":[6.658165E-2,-2.0713474E1,3.2398617E1,-3.5533295E1,-1.0247556E1,2.3019846E1,7.944124E1,-4.9044033E1,-2.9156082E1,-1.7109732E1,-2.7295861E0,1.5452396E1,3.9876E1,6.776691E1,1.1465178E2,-2.556846E0,-2.0563915E0,-1.8355023E0,-1.3270862E0,-9.5597947E-1,-5.710232E-1,-3.0296347E-1,7.76616E-2,4.9674678E-1,1.0200256E0,1.6626853E0,2.2091963E0,3.0723362E0,4.100882E0,5.326024E0,7.330869E0],"categories":[],"categories_nodes":[],"categories_segments":[],"categories_sizes":[],"default_left":[0,0,0,0,0,0,0,0,0,0,0,0,0,0,0,0,0,0,0,0,0,0,0,0,0,0,0,0,0,0,0],"id":5,"left_children":[1,3,5,7,9,11,13,15,17,19,21,23,25,27,29,-1,-1,-1,-1,-1,-1,-1,-1,-1,-1,-1,-1,-1,-1,-1,-1],"loss_changes":[1.59547E7,2.2417825E6,4.097327E6,5.140315E5,4.3711388E5,9.8767575E5,6.26816E5,2.9611E4,7.931225E4,5.042175E4,5.7695098E4,1.4581538E5,6.696E4,9.95465E4,8.3806E4,0E0,0E0,0E0,0E0,0E0,0E0,0E0,0E0,0E0,0E0,0E0,0E0,0E0,0E0,0E0,0E0],"parents":[2147483647,0,0,1,1,2,2,3,3,4,4,5,5,6,6,7,7,8,8,9,9,10,10,11,11,12,12,13,13,14,14],"right_children":[2,4,6,8,10,12,14,16,18,20,22,24,26,28,30,-1,-1,-1,-1,-1,-1,-1,-1,-1,-1,-1,-1,-1,-1,-1,-1],"split_conditions":[6.35E2,5.98E2,7E2,5.8E2,6.15E2,6.65E2,7.5E2,5.65E2,5.85E2,6.075E2,6.25E2,6.45E2,6.8E2,7.25E2,8E2,-2.556846E0,-2.0563915E0,-1.8355023E0,-1.3270862E0,-9.5597947E-1,-5.710232E-1,-3.0296347E-1,7.76616E-2,4.9674678E-1,1.0200256E0,1.6626853E0,2.2091963E0,3.0723362E0,4.100882E0,5.326024E0,7.330869E0],"split_indices":[2,2,2,3,2,2,2,2,3,2,2,2,2,2,2,0,0,0,0,0,0,0,0,0,0,0,0,0,0,0,0],"split_type":[0,0,0,0,0,0,0,0,0,0,0,0,0,0,0,0,0,0,0,0,0,0,0,0,0,0,0,0,0,0,0],"sum_hessian":[2.3745E4,1.4455E4,9.29E3,5.982E3,8.473E3,7.747E3,1.543E3,1.916E3,4.066E3,4.429E3,4.044E3,5.348E3,2.399E3,1.161E3,3.82E2,1.511E3,4.05E2,1.042E3,3.024E3,3.271E3,1.158E3,2.275E3,1.769E3,2.53E3,2.818E3,9.49E2,1.45E3,8.08E2,3.53E2,3.08E2,7.4E1],"tree_param":{"num_deleted":"0","num_feature":"28","num_nodes":"31","size_leaf_vector":"1"}},{"base_weights":[-4.983792E-2,-1.8651669E1,3.0652363E1,-3.3468414E1,-8.576597E0,2.1976875E1,6.854611E1,-4.6636692E1,-2.7414791E1,-1.4802176E1,-1.6705493E-2,1.536607E1,3.6317326E1,5.7373207E1,1.0197963E2,-2.433387E0,-1.8963102E0,-1.3966469E0,5.274056E-1,-8.875645E-1,-4.7827992E-1,-5.8387574E-2,9.735446E-1,7.2243947E-1,2.1591394E0,1.7036787E0,2.828798E0,2.5106633E0,3.71713E0,4.622084E0,6.666496E0],"categories":[],"categories_nodes":[],"categories_segments":[],"categories_sizes":[],"default_left":[0,0,0,0,0,0,0,0,0,0,0,0,0,0,0,0,0,0,0,0,0,0,0,0,0,0,0,0,0,0,0],"id":6,"left_children":[1,3,5,7,9,11,13,15,17,19,21,23,25,27,29,-1,-1,-1,-1,-1,-1,-1,-1,-1,-1,-1,-1,-1,-1,-1,-1],"loss_changes":[1.3573737E7,2.209032E6,2.946321E6,4.76182E5,4.6953306E5,6.9128075E5,6.17897E5,3.1459E4,8.10695E4,7.8592625E4,8.325546E4,1.26849375E5,1.02665E5,1.4856575E5,1.12252E5,0E0,0E0,0E0,0E0,0E0,0E0,0E0,0E0,0E0,0E0,0E0,0E0,0E0,0E0,0E0,0E0],"parents":[2147483647,0,0,1,1,2,2,3,3,4,4,5,5,6,6,7,7,8,8,9,9,10,10,11,11,12,12,13,13,14,14],"right_children":[2,4,6,8,10,12,14,16,18,20,22,24,26,28,30,-1,-1,-1,-1,-1,-1,-1,-1,-1,-1,-1,-1,-1,-1,-1,-1],"split_conditions":[6.4E2,5.98E2,6.94E2,5.8E2,6.2E2,6.65E2,1.55E2,5.7E2,1.11E2,6.075E2,1.11E2,1.35E2,1.375E2,7.3E2,7.85E2,-2.433387E0,-1.8963102E0,-1.3966469E0,5.274056E-1,-8.875645E-1,-4.7827992E-1,-5.8387574E-2,9.735446E-1,7.2243947E-1,2.1591394E0,1.7036787E0,2.828798E0,2.5106633E0,3.71713E0,4.622084E0,6.666496E0],"split_indices":[3,3,3,5,3,3,10,7,10,3,10,10,10,3,3,0,0,0,0,0,0,0,0,0,0,0,0,0,0,0,0],"split_type":[0,0,0,0,0,0,0,0,0,0,0,0,0,0,0,0,0,0,0,0,0,0,0,0,0,0,0,0,0,0,0],"sum_hessian":[2.3765E4,1.4799E4,8.966E3,5.989E3,8.81E3,7.297E3,1.669E3,1.884E3,4.105E3,5.1E3,3.71E3,4.996E3,2.301E3,1.253E3,4.16E2,1.524E3,3.6E2,4.05E3,5.5E1,3.261E3,1.839E3,3.504E3,2.06E2,4.838E3,1.58E2,2.074E3,2.27E2,8.84E2,3.69E2,3.22E2,9.4E1],"tree_param":{"num_deleted":"0","num_feature":"28","num_nodes":"31","size_leaf_vector":"1"}},{"base_weights":[-3.5167344E-2,-1.821721E1,3.0103924E1,-3.215647E1,-8.729171E0,2.155477E1,7.146539E1,-4.4207012E1,-2.652706E1,-1.5570254E1,-1.8719964E0,1.4533213E1,3.598305E1,6.1264645E1,1.0280255E2,-2.3094556E0,-1.839363E0,-1.6800879E0,-1.2027475E0,-9.0626544E-1,-5.919517E-1,-2.3619989E-1,1.7296015E-1,5.262341E-1,9.8362666E-1,1.7032816E0,2.5897102E0,2.7787492E0,3.7211156E0,4.5396075E0,6.016319E0],"categories":[],"categories_nodes":[],"categories_segments":[],"categories_sizes":[],"default_left":[0,0,0,0,0,0,0,0,0,0,0,0,0,0,0,0,0,0,0,0,0,0,0,0,0,0,0,0,0,0,0],"id":7,"left_children":[1,3,5,7,9,11,13,15,17,19,21,23,25,27,29,-1,-1,-1,-1,-1,-1,-1,-1,-1,-1,-1,-1,-1,-1,-1,-1],"loss_changes":[1.3003803E7,1.957224E6,3.1557575E6,4.0541E5,4.131498E5,7.4923975E5,4.82384E5,2.6305E4,7.06595E4,4.1803625E4,6.691716E4,1.02371375E5,7.16195E4,8.234E4,6.768475E4,0E0,0E0,0E0,0E0,0E0,0E0,0E0,0E0,0E0,0E0,0E0,0E0,0E0,0E0,0E0,0E0],"parents":[2147483647,0,0,1,1,2,2,3,3,4,4,5,5,6,6,7,7,8,8,9,9,10,10,11,11,12,12,13,13,14,14],"right_children":[2,4,6,8,10,12,14,16,18,20,22,24,26,28,30,-1,-1,-1,-1,-1,-1,-1,-1,-1,-1,-1,-1,-1,-1,-1,-1],"split_conditions":[6.4E2,5.98E2,7E2,5.8E2,6.15E2,6.65E2,7.5E2,5.65E2,5.85E2,6.05E2,6.3E2,6.5E2,1.375E2,7.25E2,7.8E2,-2.3094556E0,-1.839363E0,-1.6800879E0,-1.2027475E0,-9.0626544E-1,-5.919517E-1,-2.3619989E-1,1.7296015E-1,5.262341E-1,9.8362666E-1,1.7032816E0,2.5897102E0,2.7787492E0,3.7211156E0,4.5396075E0,6.016319E0],"split_indices":[2,2,2,3,2,2,2,2,3,2,2,2,8,2,2,0,0,0,0,0,0,0,0,0,0,0,0,0,0,0,0],"split_type":[0,0,0,0,0,0,0,0,0,0,0,0,0,0,0,0,0,0,0,0,0,0,0,0,0,0,0,0,0,0,0],"sum_hessian":[2.3728E4,1.48E4,8.928E3,5.993E3,8.807E3,7.4E3,1.528E3,1.906E3,4.087E3,4.408E3,4.399E3,4.979E3,2.421E3,1.155E3,3.73E2,1.5E3,4.06E2,1.055E3,3.032E3,2.614E3,1.794E3,2.866E3,1.533E3,2.799E3,2.18E3,2.162E3,2.59E2,8.1E2,3.45E2,2.25E2,1.48E2],"tree_param":{"num_deleted":"0","num_feature":"28","num_nodes":"31","size_leaf_vector":"1"}},{"base_weights":[-8.134503E-2,-1.6820915E1,2.7653318E1,-3.1563868E1,-8.810114E0,1.9570446E1,6.2206482E1,-4.259815E1,-2.6018358E1,-1.6877571E1,-2.9250305E0,1.3712123E1,3.2592472E1,5.0732292E1,9.077401E1,-2.116388E0,-6.387499E0,-8.076232E0,-1.2927043E0,-8.6794627E-1,6.637473E-1,-2.0454712E-1,8.3391684E-1,6.3562673E-1,2.0400708E0,1.5207537E0,2.7096775E0,2.2253754E0,3.3086407E0,3.8996809E0,5.5205417E0],"categories":[],"categories_nodes":[],"categories_segments":[],"categories_sizes":[],"default_left":[0,0,0,0,0,0,0,0,0,0,0,0,0,0,0,0,0,0,0,0,0,0,0,0,0,0,0,0,0,0,0],"id":8,"left_children":[1,3,5,7,9,11,13,15,17,19,21,23,25,27,29,-1,-1,-1,-1,-1,-1,-1,-1,-1,-1,-1,-1,-1,-1,-1,-1],"loss_changes":[1.0998929E7,1.7445535E6,2.4891595E6,3.1711E5,4.544918E5,5.50934E5,5.492875E5,3.452375E4,7.2838E4,5.8840125E4,1.2661453E5,1.3449312E5,1.0375975E5,1.1310525E5,1.1251125E5,0E0,0E0,0E0,0E0,0E0,0E0,0E0,0E0,0E0,0E0,0E0,0E0,0E0,0E0,0E0,0E0],"parents":[2147483647,0,0,1,1,2,2,3,3,4,4,5,5,6,6,7,7,8,8,9,9,10,10,11,11,12,12,13,13,14,14],"right_children":[2,4,6,8,10,12,14,16,18,20,22,24,26,28,30,-1,-1,-1,-1,-1,-1,-1,-1,-1,-1,-1,-1,-1,-1,-1,-1],"split_conditions":[6.4E2,5.95E2,6.94E2,5.75E2,6.075E2,6.65E2,1.5E2,5.925E2,2E1,1.2E2,1.11E2,1.375E2,1.375E2,7.3E2,7.6E2,-2.116388E0,-6.387499E0,-8.076232E0,-1.2927043E0,-8.6794627E-1,6.637473E-1,-2.0454712E-1,8.3391684E-1,6.3562673E-1,2.0400708E0,1.5207537E0,2.7096775E0,2.2253754E0,3.3086407E0,3.8996809E0,5.5205417E0],"split_indices":[3,3,3,6,3,3,9,4,9,10,9,9,8,3,3,0,0,0,0,0,0,0,0,0,0,0,0,0,0,0,0],"split_type":[0,0,0,0,0,0,0,0,0,0,0,0,0,0,0,0,0,0,0,0,0,0,0,0,0,0,0,0,0,0,0],"sum_hessian":[2.3689E4,1.4773E4,8.916E3,5.2E3,9.573E3,7.227E3,1.689E3,1.737E3,3.463E3,4.037E3,5.536E3,4.986E3,2.241E3,1.207E3,4.82E2,1.733E3,4E0,3E0,3.46E3,3.974E3,6.3E1,5.226E3,3.1E2,4.81E3,1.76E2,2.038E3,2.03E2,8.63E2,3.44E2,2.95E2,1.87E2],"tree_param":{"num_deleted":"0","num_feature":"28","num_nodes":"31","size_leaf_vector":"1"}},{"base_weights":[-1.9213934E-1,-1.650539E1,2.6982494E1,-3.0415545E1,-8.902245E0,1.9454897E1,6.476516E1,-3.68992E1,-2.2028933E1,-1.48510685E1,-1.8597969E0,1.1359663E1,3.0018091E1,5.4665546E1,9.488713E1,-2.0936368E0,-1.587808E0,-1.127557E0,1.4010444E0,-8.557524E-1,-5.316451E-1,-2.754622E-1,1.0487272E-1,3.9874312E-1,7.545797E-1,1.2324613E0,1.8223593E0,2.4938083E0,3.4349315E0,4.4242187E0,6.2878532E0],"categories":[],"categories_nodes":[],"categories_segments":[],"categories_sizes":[],"default_left":[0,0,0,0,0,0,0,0,0,0,0,0,0,0,0,0,0,0,0,0,0,0,0,0,0,0,0,0,0,0,0],"id":9,"left_children":[1,3,5,7,9,11,13,15,17,19,21,23,25,27,29,-1,-1,-1,-1,-1,-1,-1,-1,-1,-1,-1,-1,-1,-1,-1,-1],"loss_changes":[1.0495281E7,1.5643372E6,2.524568E6,2.834355E5,4.0076656E5,6.3302225E5,4.43463E5,7.4015E4,6.0272625E4,4.9329625E4,6.329714E4,5.285875E4,1.0997425E5,7.091525E4,6.169925E4,0E0,0E0,0E0,0E0,0E0,0E0,0E0,0E0,0E0,0E0,0E0,0E0,0E0,0E0,0E0,0E0],"parents":[2147483647,0,0,1,1,2,2,3,3,4,4,5,5,6,6,7,7,8,8,9,9,10,10,11,11,12,12,13,13,14,14],"right_children":[2,4,6,8,10,12,14,16,18,20,22,24,26,28,30,-1,-1,-1,-1,-1,-1,-1,-1,-1,-1,-1,-1,-1,-1,-1,-1],"split_conditions":[6.4E2,5.95E2,7E2,5.85E2,6.15E2,6.58E2,7.5E2,5.65E2,6.3E2,6.05E2,6.25E2,6.45E2,6.8E2,1.45E2,8.05E2,-2.0936368E0,-1.587808E0,-1.127557E0,1.4010444E0,-8.557524E-1,-5.316451E-1,-2.754622E-1,1.0487272E-1,3.9874312E-1,7.545797E-1,1.2324613E0,1.8223593E0,2.4938083E0,3.4349315E0,4.4242187E0,6.2878532E0],"split_indices":[2,2,2,3,2,2,2,5,3,2,2,2,2,8,2,0,0,0,0,0,0,0,0,0,0,0,0,0,0,0,0],"split_type":[0,0,0,0,0,0,0,0,0,0,0,0,0,0,0,0,0,0,0,0,0,0,0,0,0,0,0,0,0,0,0],"sum_hessian":[2.3673E4,1.4793E4,8.88E3,5.227E3,9.566E3,7.406E3,1.474E3,2.946E3,2.281E3,5.185E3,4.381E3,4.194E3,3.212E3,1.106E3,3.68E2,1.494E3,1.452E3,2.258E3,2.3E1,3.372E3,1.813E3,2.279E3,2.102E3,2.201E3,1.993E3,1.753E3,1.459E3,8.28E2,2.78E2,3.08E2,6E1],"tree_param":{"num_deleted":"0","num_feature":"28","num_nodes":"31","size_leaf_vector":"1"}},{"base_weights":[-1.35874655E-2,-1.6214344E1,2.5022001E1,-2.8923716E1,-8.983572E0,1.7414555E1,5.9828434E1,-3.8430023E1,-2.4096418E1,-1.4046035E1,-2.3962018E0,1.040719E1,2.786966E1,5.0408943E1,8.715365E1,-1.9407624E0,-8.533527E-1,-1.222567E0,1.5099114E0,-8.0523413E-1,-5.0806665E-1,-4.954397E0,-1.1251289E-1,3.6403948E-1,7.158946E-1,1.1359161E0,1.6622733E0,2.1932356E0,2.966839E0,3.7203808E0,5.0199933E0],"categories":[],"categories_nodes":[],"categories_segments":[],"categories_sizes":[],"default_left":[0,0,0,0,0,0,0,0,0,0,0,0,0,0,0,0,0,0,0,0,0,0,0,0,0,0,0,0,0,0,0],"id":10,"left_children":[1,3,5,7,9,11,13,15,17,19,21,23,25,27,29,-1,-1,-1,-1,-1,-1,-1,-1,-1,-1,-1,-1,-1,-1,-1,-1],"loss_changes":[9.643434E6,1.3262775E6,2.472306E6,2.3923E5,3.0682938E5,5.6139625E5,4.266655E5,1.3802E4,6.768025E4,4.1432812E4,5.617271E4,5.6028688E4,8.4399E4,7.0261E4,6.470425E4,0E0,0E0,0E0,0E0,0E0,0E0,0E0,0E0,0E0,0E0,0E0,0E0,0E0,0E0,0E0,0E0],"parents":[2147483647,0,0,1,1,2,2,3,3,4,4,5,5,6,6,7,7,8,8,9,9,10,10,11,11,12,12,13,13,14,14],"right_children":[2,4,6,8,10,12,14,16,18,20,22,24,26,28,30,-1,-1,-1,-1,-1,-1,-1,-1,-1,-1,-1,-1,-1,-1,-1,-1],"split_conditions":[6.35E2,5.95E2,6.94E2,5.75E2,6.125E2,6.58E2,7.45E2,5.75E2,6.3E2,6.05E2,5.7E2,6.45E2,6.75E2,7.15E2,7.7E2,-1.9407624E0,-8.533527E-1,-1.222567E0,1.5099114E0,-8.0523413E-1,-5.0806665E-1,-4.954397E0,-1.1251289E-1,3.6403948E-1,7.158946E-1,1.1359161E0,1.6622733E0,2.1932356E0,2.966839E0,3.7203808E0,5.0199933E0],"split_indices":[2,2,2,3,2,2,2,2,3,2,5,2,2,2,2,0,0,0,0,0,0,0,0,0,0,0,0,0,0,0,0],"split_type":[0,0,0,0,0,0,0,0,0,0,0,0,0,0,0,0,0,0,0,0,0,0,0,0,0,0,0,0,0,0,0],"sum_hessian":[2.3774E4,1.4434E4,9.34E3,5.233E3,9.201E3,7.666E3,1.674E3,1.76E3,3.473E3,5.202E3,3.999E3,4.591E3,3.075E3,1.247E3,4.27E2,1.728E3,3.2E1,3.451E3,2.2E1,3.398E3,1.804E3,5E0,3.994E3,2.553E3,2.038E3,1.573E3,1.502E3,7.23E2,5.24E2,2.21E2,2.06E2],"tree_param":{"num_deleted":"0","num_feature":"28","num_nodes":"31","size_leaf_vector":"1"}},{"base_weights":[3.6432575E-2,-1.489779E1,2.4654085E1,-2.6310665E1,-7.1901617E0,1.7589247E1,5.887642E1,-3.3352425E1,-1.954908E1,-1.20920725E1,-4.547168E-1,1.2167731E1,3.0464823E1,4.99365E1,8.603485E1,-1.8902451E0,-1.4341615E0,-9.936277E-1,1.398455E0,-7.093534E-1,-4.167049E-1,-1.5492368E-1,1.636946E-1,4.1321707E-1,8.318289E-1,1.4546698E0,2.2639673E0,2.1454227E0,2.9469151E0,3.9918232E0,5.612432E0],"categories":[],"categories_nodes":[],"categories_segments":[],"categories_sizes":[],"default_left":[0,0,0,0,0,0,0,0,0,0,0,0,0,0,0,0,0,0,0,0,0,0,0,0,0,0,0,0,0,0,0],"id":11,"left_children":[1,3,5,7,9,11,13,15,17,19,21,23,25,27,29,-1,-1,-1,-1,-1,-1,-1,-1,-1,-1,-1,-1,-1,-1,-1,-1],"loss_changes":[8.742614E6,1.301782E6,2.1698265E6,2.83383E5,2.9172247E5,5.1923725E5,3.685675E5,5.96085E4,4.73715E4,4.0132688E4,3.6709664E4,9.125475E4,4.3444625E4,7.068125E4,5.25235E4,0E0,0E0,0E0,0E0,0E0,0E0,0E0,0E0,0E0,0E0,0E0,0E0,0E0,0E0,0E0,0E0],"parents":[2147483647,0,0,1,1,2,2,3,3,4,4,5,5,6,6,7,7,8,8,9,9,10,10,11,11,12,12,13,13,14,14],"right_children":[2,4,6,8,10,12,14,16,18,20,22,24,26,28,30,-1,-1,-1,-1,-1,-1,-1,-1,-1,-1,-1,-1,-1,-1,-1,-1],"split_conditions":[6.4E2,5.98E2,7E2,5.85E2,6.2E2,6.7E2,7.5E2,5.65E2,6.3E2,6.075E2,6.3E2,6.5E2,1.45E2,7.2E2,8E2,-1.8902451E0,-1.4341615E0,-9.936277E-1,1.398455E0,-7.093534E-1,-4.167049E-1,-1.5492368E-1,1.636946E-1,4.1321707E-1,8.318289E-1,1.4546698E0,2.2639673E0,2.1454227E0,2.9469151E0,3.9918232E0,5.612432E0],"split_indices":[2,2,2,3,2,2,2,5,3,2,2,2,8,2,2,0,0,0,0,0,0,0,0,0,0,0,0,0,0,0,0],"split_type":[0,0,0,0,0,0,0,0,0,0,0,0,0,0,0,0,0,0,0,0,0,0,0,0,0,0,0,0,0,0,0],"sum_hessian":[2.3778E4,1.48E4,8.978E3,5.965E3,8.835E3,7.443E3,1.535E3,2.92E3,3.045E3,5.113E3,3.722E3,5.239E3,2.204E3,1.157E3,3.78E2,1.491E3,1.429E3,3.025E3,2E1,3.281E3,1.832E3,2.178E3,1.544E3,2.798E3,2.441E3,2.02E3,1.84E2,6.53E2,5.04E2,3.09E2,6.9E1],"tree_param":{"num_deleted":"0","num_feature":"28","num_nodes":"31","size_leaf_vector":"1"}},{"base_weights":[-1.2164513E-1,-1.4322759E1,2.3352879E1,-2.6188814E1,-7.7738595E0,1.6775412E1,5.554902E1,-3.1631586E1,-1.927658E1,-1.21417465E1,-8.280369E-1,1.159518E1,2.9145815E1,4.6356148E1,7.8796974E1,-1.7868611E0,-1.3560427E0,-9.8435384E-1,1.2255493E0,-7.339979E-1,-4.2949662E-1,-3.6338298E0,-3.3569917E-2,3.989608E-1,7.887069E-1,1.4149101E0,2.9163165E0,2.1267455E0,3.109111E0,3.4406686E0,4.749257E0],"categories":[],"categories_nodes":[],"categories_segments":[],"categories_sizes":[],"default_left":[0,0,0,0,0,0,0,0,0,0,0,0,0,0,0,0,0,0,0,0,0,0,0,0,0,0,0,0,0,0,0],"id":12,"left_children":[1,3,5,7,9,11,13,15,17,19,21,23,25,27,29,-1,-1,-1,-1,-1,-1,-1,-1,-1,-1,-1,-1,-1,-1,-1,-1],"loss_changes":[7.9217355E6,1.1503475E6,1.8958475E6,1.9744325E5,2.8947412E5,4.7634425E5,3.209185E5,5.35205E4,4.2217188E4,5.2673688E4,4.1386453E4,7.911925E4,5.2597E4,6.328125E4,6.271525E4,0E0,0E0,0E0,0E0,0E0,0E0,0E0,0E0,0E0,0E0,0E0,0E0,0E0,0E0,0E0,0E0],"parents":[2147483647,0,0,1,1,2,2,3,3,4,4,5,5,6,6,7,7,8,8,9,9,10,10,11,11,12,12,13,13,14,14],"right_children":[2,4,6,8,10,12,14,16,18,20,22,24,26,28,30,-1,-1,-1,-1,-1,-1,-1,-1,-1,-1,-1,-1,-1,-1,-1,-1],"split_conditions":[6.4E2,5.95E2,7E2,5.85E2,6.2E2,6.7E2,7.45E2,5.7E2,6.3E2,6.025E2,5.7E2,6.5E2,1.65E2,1.5E2,1.7E2,-1.7868611E0,-1.3560427E0,-9.8435384E-1,1.2255493E0,-7.339979E-1,-4.2949662E-1,-3.6338298E0,-3.3569917E-2,3.989608E-1,7.887069E-1,1.4149101E0,2.9163165E0,2.1267455E0,3.109111E0,3.4406686E0,4.749257E0],"split_indices":[2,2,2,3,2,2,2,2,3,2,5,2,9,8,9,0,0,0,0,0,0,0,0,0,0,0,0,0,0,0,0],"split_type":[0,0,0,0,0,0,0,0,0,0,0,0,0,0,0,0,0,0,0,0,0,0,0,0,0,0,0,0,0,0,0],"sum_hessian":[2.3761E4,1.4805E4,8.956E3,5.264E3,9.541E3,7.438E3,1.518E3,2.943E3,2.321E3,5.857E3,3.684E3,5.244E3,2.194E3,1.09E3,4.28E2,1.537E3,1.406E3,2.3E3,2.1E1,3.414E3,2.443E3,7E0,3.677E3,2.813E3,2.431E3,2.134E3,6E1,8.81E2,2.09E2,2.68E2,1.6E2],"tree_param":{"num_deleted":"0","num_feature":"28","num_nodes":"31","size_leaf_vector":"1"}},{"base_weights":[2.3737958E-2,-1.3564748E1,2.2348057E1,-2.5096167E1,-7.198215E0,1.5486808E1,5.1740524E1,-3.2732586E1,-2.0789919E1,-1.1439568E1,-5.6387085E-1,9.189677E0,2.4066006E1,4.1657017E1,7.1762054E1,-1.6234006E0,-6.2889304E0,-1.2696136E0,-9.294864E-1,-6.723501E-1,-3.5201418E-1,-3.0193393E0,-2.0895516E-2,3.3114728E-1,6.0075855E-1,1.0119399E0,1.4691488E0,1.9293861E0,2.832619E0,3.08859E0,4.409864E0],"categories":[],"categories_nodes":[],"categories_segments":[],"categories_sizes":[],"default_left":[0,0,0,0,0,0,0,0,0,0,0,0,0,0,0,0,0,0,0,0,0,0,0,0,0,0,0,0,0,0,0],"id":13,"left_children":[1,3,5,7,9,11,13,15,17,19,21,23,25,27,29,-1,-1,-1,-1,-1,-1,-1,-1,-1,-1,-1,-1,-1,-1,-1,-1],"loss_changes":[7.1907005E6,1.0815755E6,1.8079345E6,1.7163925E5,2.6716347E5,3.9268112E5,3.39556E5,4.2315625E4,3.346875E4,5.104575E4,3.2286895E4,3.0341719E4,6.201525E4,4.9820875E4,8.7574E4,0E0,0E0,0E0,0E0,0E0,0E0,0E0,0E0,0E0,0E0,0E0,0E0,0E0,0E0,0E0,0E0],"parents":[2147483647,0,0,1,1,2,2,3,3,4,4,5,5,6,6,7,7,8,8,9,9,10,10,11,11,12,12,13,13,14,14],"right_children":[2,4,6,8,10,12,14,16,18,20,22,24,26,28,30,-1,-1,-1,-1,-1,-1,-1,-1,-1,-1,-1,-1,-1,-1,-1,-1],"split_conditions":[6.4E2,5.95E2,6.94E2,5.8E2,6.2E2,6.58E2,7.325E2,5.925E2,5.85E2,6.075E2,5.7E2,6.45E2,6.8E2,1.5E2,7.7E2,-1.6234006E0,-6.2889304E0,-1.2696136E0,-9.294864E-1,-6.723501E-1,-3.5201418E-1,-3.0193393E0,-2.0895516E-2,3.3114728E-1,6.0075855E-1,1.0119399E0,1.4691488E0,1.9293861E0,2.832619E0,3.08859E0,4.409864E0],"split_indices":[2,2,2,5,2,2,2,4,3,2,5,2,2,8,2,0,0,0,0,0,0,0,0,0,0,0,0,0,0,0,0],"split_type":[0,0,0,0,0,0,0,0,0,0,0,0,0,0,0,0,0,0,0,0,0,0,0,0,0,0,0,0,0,0,0],"sum_hessian":[2.3702E4,1.4734E4,8.968E3,5.24E3,9.494E3,7.272E3,1.696E3,1.887E3,3.353E3,5.791E3,3.703E3,4.195E3,3.077E3,1.13E3,5.66E2,1.883E3,4E0,1.081E3,2.272E3,3.975E3,1.816E3,8E0,3.695E3,2.2E3,1.995E3,1.792E3,1.285E3,9.41E2,1.89E2,3.55E2,2.11E2],"tree_param":{"num_deleted":"0","num_feature":"28","num_nodes":"31","size_leaf_vector":"1"}},{"base_weights":[-4.8383433E-2,-1.2860609E1,2.1155039E1,-2.2624557E1,-6.196341E0,1.5808551E1,5.4912193E1,-2.836037E1,-1.6894423E1,-1.0283916E1,-5.9328675E-1,1.0366211E1,2.7200111E1,4.904292E1,8.424575E1,-1.6158392E0,-1.2197632E0,-8.575186E-1,-4.1622725E-1,-6.063416E-1,-3.5298538E-1,-1.857108E-1,9.0201825E-2,3.496318E-1,7.1492356E-1,1.2832836E0,1.9660395E0,2.2756822E0,3.2199166E0,3.8523223E0,5.081529E0],"categories":[],"categories_nodes":[],"categories_segments":[],"categories_sizes":[],"default_left":[0,0,0,0,0,0,0,0,0,0,0,0,0,0,0,0,0,0,0,0,0,0,0,0,0,0,0,0,0,0,0],"id":14,"left_children":[1,3,5,7,9,11,13,15,17,19,21,23,25,27,29,-1,-1,-1,-1,-1,-1,-1,-1,-1,-1,-1,-1,-1,-1,-1,-1],"loss_changes":[6.437867E6,9.61053E5,1.610081E6,1.9643725E5,2.0109884E5,4.7750825E5,2.0584525E5,4.613625E4,6.4248125E3,3.0072062E4,2.7728008E4,6.9096875E4,4.5287E4,5.223725E4,1.7362375E4,0E0,0E0,0E0,0E0,0E0,0E0,0E0,0E0,0E0,0E0,0E0,0E0,0E0,0E0,0E0,0E0],"parents":[2147483647,0,0,1,1,2,2,3,3,4,4,5,5,6,6,7,7,8,8,9,9,10,10,11,11,12,12,13,13,14,14],"right_children":[2,4,6,8,10,12,14,16,18,20,22,24,26,28,30,-1,-1,-1,-1,-1,-1,-1,-1,-1,-1,-1,-1,-1,-1,-1,-1],"split_conditions":[6.4E2,5.98E2,7.05E2,5.85E2,6.2E2,6.7E2,7.7E2,5.65E2,1E0,6.075E2,6.25E2,6.5E2,1.375E2,1.55E2,8.1E2,-1.6158392E0,-1.2197632E0,-8.575186E-1,-4.1622725E-1,-6.063416E-1,-3.5298538E-1,-1.857108E-1,9.0201825E-2,3.496318E-1,7.1492356E-1,1.2832836E0,1.9660395E0,2.2756822E0,3.2199166E0,3.8523223E0,5.081529E0],"split_indices":[2,2,2,2,2,2,2,4,15,2,2,2,8,8,2,0,0,0,0,0,0,0,0,0,0,0,0,0,0,0,0],"split_type":[0,0,0,0,0,0,0,0,0,0,0,0,0,0,0,0,0,0,0,0,0,0,0,0,0,0,0,0,0,0,0],"sum_hessian":[2.3696E4,1.4771E4,8.925E3,5.991E3,8.78E3,7.706E3,1.219E3,2.992E3,2.999E3,5.076E3,3.704E3,5.216E3,2.49E3,1.018E3,2.01E2,1.494E3,1.498E3,2.911E3,8.8E1,3.228E3,1.848E3,1.609E3,2.095E3,2.809E3,2.407E3,2.213E3,2.77E2,8.31E2,1.87E2,1.46E2,5.5E1],"tree_param":{"num_deleted":"0","num_feature":"28","num_nodes":"31","size_leaf_vector":"1"}},{"base_weights":[-1.0730497E-1,-1.2205558E1,2.0046396E1,-2.2670122E1,-6.4502525E0,1.3388227E1,4.3818413E1,-2.72716E1,-1.6800919E1,-1.0901018E1,-1.2186869E0,8.24807E0,2.114839E1,3.6463177E1,6.479951E1,-1.5468392E0,-1.1750697E0,-8.58417E-1,1.3005147E0,-5.5598676E-1,7.656141E-1,-2.0203082E-1,9.018124E-2,9.4113505E-1,3.8085064E-1,1.0012919E0,1.7942291E0,1.6550417E0,2.4660974E0,2.8486137E0,4.073866E0],"categories":[],"categories_nodes":[],"categories_segments":[],"categories_sizes":[],"default_left":[0,0,0,0,0,0,0,0,0,0,0,0,0,0,0,0,0,0,0,0,0,0,0,0,0,0,0,0,0,0,0],"id":15,"left_children":[1,3,5,7,9,11,13,15,17,19,21,23,25,27,29,-1,-1,-1,-1,-1,-1,-1,-1,-1,-1,-1,-1,-1,-1,-1,-1],"loss_changes":[5.761572E6,8.891475E5,1.4023618E6,1.4100975E5,2.2183506E5,2.7607838E5,2.968145E5,3.9803E4,3.6699125E4,2.968325E4,3.7372867E4,2.7657312E4,4.489325E4,6.0498875E4,6.082075E4,0E0,0E0,0E0,0E0,0E0,0E0,0E0,0E0,0E0,0E0,0E0,0E0,0E0,0E0,0E0,0E0],"parents":[2147483647,0,0,1,1,2,2,3,3,4,4,5,5,6,6,7,7,8,8,9,9,10,10,11,11,12,12,13,13,14,14],"right_children":[2,4,6,8,10,12,14,16,18,20,22,24,26,28,30,-1,-1,-1,-1,-1,-1,-1,-1,-1,-1,-1,-1,-1,-1,-1,-1],"split_conditions":[6.4E2,5.95E2,6.9E2,5.85E2,6.15E2,6.58E2,7.4E2,5.65E2,6.3E2,1.45E2,6.25E2,6.4E2,1.375E2,1.45E2,7.8E2,-1.5468392E0,-1.1750697E0,-8.58417E-1,1.3005147E0,-5.5598676E-1,7.656141E-1,-2.0203082E-1,9.018124E-2,9.4113505E-1,3.8085064E-1,1.0012919E0,1.7942291E0,1.6550417E0,2.4660974E0,2.8486137E0,4.073866E0],"split_indices":[2,2,2,3,2,2,2,6,3,8,2,3,9,8,2,0,0,0,0,0,0,0,0,0,0,0,0,0,0,0,0],"split_type":[0,0,0,0,0,0,0,0,0,0,0,0,0,0,0,0,0,0,0,0,0,0,0,0,0,0,0,0,0,0,0],"sum_hessian":[2.3628E4,1.4765E4,8.863E3,5.238E3,9.527E3,6.925E3,1.938E3,2.934E3,2.304E3,5.147E3,4.38E3,4.167E3,2.758E3,1.437E3,5.01E2,1.484E3,1.45E3,2.285E3,1.9E1,5.105E3,4.2E1,2.265E3,2.115E3,2.33E2,3.934E3,2.565E3,1.93E2,1.142E3,2.95E2,3.44E2,1.57E2],"tree_param":{"num_deleted":"0","num_feature":"28","num_nodes":"31","size_leaf_vector":"1"}},{"base_weights":[6.0647875E-2,-1.1879225E1,1.8543474E1,-2.1395868E1,-6.540385E0,1.017777E1,3.6048046E1,-2.5824022E1,-1.5780254E1,-1.1623208E1,-2.6019206E0,7.2887893E0,1.671968E1,2.8935892E1,5.793397E1,-1.4665868E0,-1.1124539E0,-8.1034803E-1,1.4384063E0,-5.90419E-1,5.9152216E-1,-2.3450418E-1,7.6803826E-2,2.5711653E-1,5.112873E-1,1.4479756E0,7.4632955E-1,1.3608425E0,2.1922834E0,2.5221312E0,3.763652E0],"categories":[],"categories_nodes":[],"categories_segments":[],"categories_sizes":[],"default_left":[0,0,0,0,0,0,0,0,0,0,0,0,0,0,0,0,0,0,0,0,0,0,0,0,0,0,0,0,0,0,0],"id":16,"left_children":[1,3,5,7,9,11,13,15,17,19,21,23,25,27,29,-1,-1,-1,-1,-1,-1,-1,-1,-1,-1,-1,-1,-1,-1,-1,-1],"loss_changes":[5.2259875E6,7.308184E5,1.3606055E6,1.28133E5,1.8449338E5,1.1874369E5,4.6602675E5,3.554925E4,4.3838688E4,1.761575E4,4.489781E4,2.7456938E4,4.1815938E4,5.69525E4,9.17415E4,0E0,0E0,0E0,0E0,0E0,0E0,0E0,0E0,0E0,0E0,0E0,0E0,0E0,0E0,0E0,0E0],"parents":[2147483647,0,0,1,1,2,2,3,3,4,4,5,5,6,6,7,7,8,8,9,9,10,10,11,11,12,12,13,13,14,14],"right_children":[2,4,6,8,10,12,14,16,18,20,22,24,26,28,30,-1,-1,-1,-1,-1,-1,-1,-1,-1,-1,-1,-1,-1,-1,-1,-1],"split_conditions":[6.35E2,5.95E2,6.8E2,5.85E2,6.075E2,6.55E2,7.25E2,5.65E2,6.3E2,1.35E2,6.25E2,6.45E2,6.55E2,1.5E2,1.7E2,-1.4665868E0,-1.1124539E0,-8.1034803E-1,1.4384063E0,-5.90419E-1,5.9152216E-1,-2.3450418E-1,7.6803826E-2,2.5711653E-1,5.112873E-1,1.4479756E0,7.4632955E-1,1.3608425E0,2.1922834E0,2.5221312E0,3.763652E0],"split_indices":[2,2,2,3,2,2,2,6,3,9,2,2,3,9,9,0,0,0,0,0,0,0,0,0,0,0,0,0,0,0,0],"split_type":[0,0,0,0,0,0,0,0,0,0,0,0,0,0,0,0,0,0,0,0,0,0,0,0,0,0,0,0,0,0,0],"sum_hessian":[2.3679E4,1.4386E4,9.293E3,5.169E3,9.217E3,6.289E3,3.004E3,2.888E3,2.281E3,4.023E3,5.194E3,4.364E3,1.925E3,2.269E3,7.35E2,1.454E3,1.434E3,2.26E3,2.1E1,3.992E3,3.1E1,3.452E3,1.742E3,2.523E3,1.841E3,2.44E2,1.681E3,2.037E3,2.32E2,5.16E2,2.19E2],"tree_param":{"num_deleted":"0","num_feature":"28","num_nodes":"31","size_leaf_vector":"1"}},{"base_weights":[2.006779E-2,-1.19729185E1,1.5161445E1,-2.323082E1,-8.388292E0,8.469462E0,3.197695E1,-2.348891E1,4.7186794E1,-1.1784977E1,-3.2613556E0,7.088808E0,2.3313665E1,2.6117025E1,5.3153027E1,-1.3863803E0,-9.860043E-1,1.1636803E0,2.625817E0,-6.0180783E-1,1.5823572E0,-1.8706761E-1,1.6291102E0,1.7308462E-1,5.451679E-1,9.729787E-1,2.1685429E0,1.2127317E0,1.9702917E0,2.311251E0,3.5552871E0],"categories":[],"categories_nodes":[],"categories_segments":[],"categories_sizes":[],"default_left":[0,0,0,0,0,0,0,0,0,0,0,0,0,0,0,0,0,0,0,0,0,0,0,0,0,0,0,0,0,0,0],"id":17,"left_children":[1,3,5,7,9,11,13,15,17,19,21,23,25,27,29,-1,-1,-1,-1,-1,-1,-1,-1,-1,-1,-1,-1,-1,-1,-1,-1],"loss_changes":[4.3085955E6,5.3409425E5,1.179801E6,5.91995E4,1.7486606E5,1.5359144E5,3.6898125E5,5.0325625E4,2.6921875E2,6.6274125E4,6.899547E4,9.495181E4,4.844347E4,5.6924875E4,7.700175E4,0E0,0E0,0E0,0E0,0E0,0E0,0E0,0E0,0E0,0E0,0E0,0E0,0E0,0E0,0E0,0E0],"parents":[2147483647,0,0,1,1,2,2,3,3,4,4,5,5,6,6,7,7,8,8,9,9,10,10,11,11,12,12,13,13,14,14],"right_children":[2,4,6,8,10,12,14,16,18,20,22,24,26,28,30,-1,-1,-1,-1,-1,-1,-1,-1,-1,-1,-1,-1,-1,-1,-1,-1],"split_conditions":[6.3E2,5.9E2,6.8E2,1.6E2,6.075E2,1.25E2,1.5E2,5.7E2,1.45E2,1.5E2,1.375E2,6.45E2,1.6E2,7.3E2,1.85E2,-1.3863803E0,-9.860043E-1,1.1636803E0,2.625817E0,-6.0180783E-1,1.5823572E0,-1.8706761E-1,1.6291102E0,1.7308462E-1,5.451679E-1,9.729787E-1,2.1685429E0,1.2127317E0,1.9702917E0,2.311251E0,3.5552871E0],"split_indices":[3,4,3,10,3,9,10,5,8,9,9,3,8,3,10,0,0,0,0,0,0,0,0,0,0,0,0,0,0,0,0],"split_type":[0,0,0,0,0,0,0,0,0,0,0,0,0,0,0,0,0,0,0,0,0,0,0,0,0,0,0,0,0,0,0],"sum_hessian":[2.3725E4,1.3239E4,1.0486E4,3.196E3,1.0043E4,7.502E3,2.984E3,3.185E3,1.1E1,6.04E3,4.003E3,6.865E3,6.37E2,2.339E3,6.45E2,1.496E3,1.689E3,3E0,8E0,6.006E3,3.4E1,3.951E3,5.2E1,3.52E3,3.345E3,5.36E2,1.01E2,2.054E3,2.85E2,4.68E2,1.77E2],"tree_param":{"num_deleted":"0","num_feature":"28","num_nodes":"31","size_leaf_vector":"1"}},{"base_weights":[-3.7194989E-3,-1.1373595E1,1.4393238E1,-2.199696E1,-7.9026694E0,8.132953E0,3.0169117E1,-2.6515999E1,-1.822862E1,-1.108337E1,-3.1418054E0,6.9365153E0,2.4801691E1,2.3861198E1,4.7168705E1,-1.3075073E0,-6.477619E0,-9.711413E-1,2.6155401E-2,-5.6818426E-1,1.1971459E0,-1.8218735E-1,1.5578464E0,1.6252919E-1,5.359125E-1,9.8969746E-1,2.057475E0,1.1121124E0,1.8124546E0,2.1308727E0,3.6934552E0],"categories":[],"categories_nodes":[],"categories_segments":[],"categories_sizes":[],"default_left":[0,0,0,0,0,0,0,0,0,0,0,0,0,0,0,0,0,0,0,0,0,0,0,0,0,0,0,0,0,0,0],"id":18,"left_children":[1,3,5,7,9,11,13,15,17,19,21,23,25,27,29,-1,-1,-1,-1,-1,-1,-1,-1,-1,-1,-1,-1,-1,-1,-1,-1],"loss_changes":[3.8943858E6,4.8996275E5,1.036534E6,5.5231125E4,1.5170488E5,1.4972438E5,3.18605E5,5.2551312E4,4.0059E4,5.9244938E4,6.922185E4,9.774178E4,4.0333438E4,4.2825E4,9.4738875E4,0E0,0E0,0E0,0E0,0E0,0E0,0E0,0E0,0E0,0E0,0E0,0E0,0E0,0E0,0E0,0E0],"parents":[2147483647,0,0,1,1,2,2,3,3,4,4,5,5,6,6,7,7,8,8,9,9,10,10,11,11,12,12,13,13,14,14],"right_children":[2,4,6,8,10,12,14,16,18,20,22,24,26,28,30,-1,-1,-1,-1,-1,-1,-1,-1,-1,-1,-1,-1,-1,-1,-1,-1],"split_conditions":[6.3E2,5.86E2,6.8E2,5.65E2,6.075E2,1.3E2,1.375E2,1E0,9.6E1,1.45E2,1.375E2,6.45E2,1.6E2,7.3E2,7.85E2,-1.3075073E0,-6.477619E0,-9.711413E-1,2.6155401E-2,-5.6818426E-1,1.1971459E0,-1.8218735E-1,1.5578464E0,1.6252919E-1,5.359125E-1,9.8969746E-1,2.057475E0,1.1121124E0,1.8124546E0,2.1308727E0,3.6934552E0],"split_indices":[3,3,3,5,3,9,9,19,9,9,9,3,9,3,3,0,0,0,0,0,0,0,0,0,0,0,0,0,0,0,0],"split_type":[0,0,0,0,0,0,0,0,0,0,0,0,0,0,0,0,0,0,0,0,0,0,0,0,0,0,0,0,0,0,0],"sum_hessian":[2.3789E4,1.3292E4,1.0497E4,3.272E3,1.002E4,7.516E3,2.981E3,1.485E3,1.787E3,6.006E3,4.014E3,7.014E3,5.02E2,2.176E3,8.05E2,1.481E3,4E0,1.68E3,1.07E2,5.959E3,4.7E1,3.957E3,5.7E1,3.553E3,3.461E3,3.86E2,1.16E2,1.927E3,2.49E2,6.9E2,1.15E2],"tree_param":{"num_deleted":"0","num_feature":"28","num_nodes":"31","size_leaf_vector":"1"}},{"base_weights":[5.272691E-2,-9.868371E0,1.6199718E1,-1.7440742E1,-4.72978E0,1.1279306E1,3.8059788E1,-2.192853E1,-1.2974065E1,-7.9509435E0,-3.6762688E-1,6.611846E0,1.784713E1,3.0425545E1,5.320355E1,-1.1101604E0,1.0858225E0,-6.5361685E-1,7.333266E-1,-4.8350707E-1,-3.0507335E-1,-2.208668E0,-1.00910105E-2,8.4908134E-1,2.9964545E-1,8.341762E-1,1.5000197E0,1.439349E0,2.219914E0,2.4852111E0,4.141723E0],"categories":[],"categories_nodes":[],"categories_segments":[],"categories_sizes":[],"default_left":[0,0,0,0,0,0,0,0,0,0,0,0,0,0,0,0,0,0,0,0,0,0,0,0,0,0,0,0,0,0,0],"id":19,"left_children":[1,3,5,7,9,11,13,15,17,19,21,23,25,27,29,-1,-1,-1,-1,-1,-1,-1,-1,-1,-1,-1,-1,-1,-1,-1,-1],"loss_changes":[3.797126E6,5.712026E5,9.698495E5,1.18668125E5,1.22912875E5,2.2564431E5,1.89907E5,3.595575E4,8.277344E3,1.59329375E4,2.6966516E4,2.7530094E4,4.2735375E4,2.3961688E4,5.326E4,0E0,0E0,0E0,0E0,0E0,0E0,0E0,0E0,0E0,0E0,0E0,0E0,0E0,0E0,0E0,0E0],"parents":[2147483647,0,0,1,1,2,2,3,3,4,4,5,5,6,6,7,7,8,8,9,9,10,10,11,11,12,12,13,13,14,14],"right_children":[2,4,6,8,10,12,14,16,18,20,22,24,26,28,30,-1,-1,-1,-1,-1,-1,-1,-1,-1,-1,-1,-1,-1,-1,-1,-1],"split_conditions":[6.4E2,5.98E2,6.94E2,5.85E2,6.2E2,6.58E2,7.325E2,6.3E2,1.11E2,6.025E2,5.7E2,6.4E2,1.375E2,1.55E2,8.05E2,-1.1101604E0,1.0858225E0,-6.5361685E-1,7.333266E-1,-4.8350707E-1,-3.0507335E-1,-2.208668E0,-1.00910105E-2,8.4908134E-1,2.9964545E-1,8.341762E-1,1.5000197E0,1.439349E0,2.219914E0,2.4852111E0,4.141723E0],"split_indices":[2,2,2,2,2,2,2,3,11,2,4,3,8,8,2,0,0,0,0,0,0,0,0,0,0,0,0,0,0,0,0],"split_type":[0,0,0,0,0,0,0,0,0,0,0,0,0,0,0,0,0,0,0,0,0,0,0,0,0,0,0,0,0,0,0],"sum_hessian":[2.3701E4,1.4681E4,9.02E3,5.934E3,8.747E3,7.364E3,1.656E3,2.958E3,2.976E3,5.031E3,3.716E3,4.306E3,3.058E3,1.103E3,5.53E2,2.94E3,1.8E1,2.966E3,1E1,2.605E3,2.426E3,1.3E1,3.703E3,2.41E2,4.065E3,2.793E3,2.65E2,9.9E2,1.13E2,4.97E2,5.6E1],"tree_param":{"num_deleted":"0","num_feature":"28","num_nodes":"31","size_leaf_vector":"1"}},{"base_weights":[2.2656353E-2,-7.677387E0,1.9201286E1,-1.433388E1,-8.781011E-1,1.4683278E1,4.2167046E1,-2.050319E1,-1.0519547E1,-4.717277E0,2.73811E0,1.063495E1,2.1627634E1,3.711667E1,6.360247E1,-1.2019647E0,-8.748059E-1,-5.290539E-1,1.8613552E0,-3.4199579E0,-2.2950359E-1,9.095979E-2,3.4823647E-1,4.882052E-1,1.161172E0,1.0076212E0,1.5715759E0,1.6984586E0,2.5203497E0,2.9621892E0,4.349189E0],"categories":[],"categories_nodes":[],"categories_segments":[],"categories_sizes":[],"default_left":[0,0,0,0,0,0,0,0,0,0,0,0,0,0,0,0,0,0,0,0,0,0,0,0,0,0,0,0,0,0,0],"id":20,"left_children":[1,3,5,7,9,11,13,15,17,19,21,23,25,27,29,-1,-1,-1,-1,-1,-1,-1,-1,-1,-1,-1,-1,-1,-1,-1,-1],"loss_changes":[3.4950602E6,7.6427544E5,7.0284175E5,2.0056562E5,1.1600863E5,1.5907038E5,1.18187125E5,3.4212625E4,1.5878E4,3.2481547E4,1.669537E4,3.9024938E4,2.9510062E4,3.6061E4,1.6277E4,0E0,0E0,0E0,0E0,0E0,0E0,0E0,0E0,0E0,0E0,0E0,0E0,0E0,0E0,0E0,0E0],"parents":[2147483647,0,0,1,1,2,2,3,3,4,4,5,5,6,6,7,7,8,8,9,9,10,10,11,11,12,12,13,13,14,14],"right_children":[2,4,6,8,10,12,14,16,18,20,22,24,26,28,30,-1,-1,-1,-1,-1,-1,-1,-1,-1,-1,-1,-1,-1,-1,-1,-1],"split_conditions":[6.45E2,6.05E2,7.1E2,5.875E2,6.25E2,6.75E2,7.7E2,5.65E2,1.65E2,5.7E2,1.06E2,1.35E2,1.375E2,1.55E2,8.2E2,-1.2019647E0,-8.748059E-1,-5.290539E-1,1.8613552E0,-3.4199579E0,-2.2950359E-1,9.095979E-2,3.4823647E-1,4.882052E-1,1.161172E0,1.0076212E0,1.5715759E0,1.6984586E0,2.5203497E0,2.9621892E0,4.349189E0],"split_indices":[2,2,2,2,2,2,2,5,9,7,9,8,8,8,2,0,0,0,0,0,0,0,0,0,0,0,0,0,0,0,0],"split_type":[0,0,0,0,0,0,0,0,0,0,0,0,0,0,0,0,0,0,0,0,0,0,0,0,0,0,0,0,0,0,0],"sum_hessian":[2.3665E4,1.6886E4,6.779E3,8.532E3,8.354E3,5.666E3,1.113E3,3.258E3,5.274E3,4.052E3,4.302E3,3.581E3,2.085E3,9.03E2,2.1E2,1.494E3,1.764E3,5.268E3,6E0,7E0,4.045E3,3.535E3,7.67E2,3.351E3,2.3E2,1.815E3,2.7E2,7.33E2,1.7E2,1.8E2,3E1],"tree_param":{"num_deleted":"0","num_feature":"28","num_nodes":"31","size_leaf_vector":"1"}},{"base_weights":[-6.514083E-2,-1.0044647E1,1.1363692E1,-1.9355907E1,-7.2398553E0,7.2093115E0,2.9060612E1,-1.9665018E1,2.9027954E1,-8.051567E0,1.31515255E1,3.9650757E0,1.3413582E1,2.5051048E1,5.2782246E1,-9.7402555E-1,-7.44264E0,1.0917515E0,2.2350566E0,-5.2560383E-1,-2.1617441E-1,4.2174464E-1,1.7477818E0,3.114794E-2,2.6733908E-1,5.0138265E-1,8.301186E-1,1.0013722E0,1.6322784E0,2.274612E0,3.389499E0],"categories":[],"categories_nodes":[],"categories_segments":[],"categories_sizes":[],"default_left":[0,0,0,0,0,0,0,0,0,0,0,0,0,0,0,0,0,0,0,0,0,0,0,0,0,0,0,0,0,0,0],"id":21,"left_children":[1,3,5,7,9,11,13,15,17,19,21,23,25,27,29,-1,-1,-1,-1,-1,-1,-1,-1,-1,-1,-1,-1,-1,-1,-1,-1],"loss_changes":[2.705591E6,3.3058138E5,8.1275375E5,4.4402125E4,1.6121975E5,1.8022569E5,1.9856725E5,6.64505E4,1.132666E3,8.58245E4,3.8043508E4,2.7160336E4,3.3021E4,6.799325E4,3.0009688E4,0E0,0E0,0E0,0E0,0E0,0E0,0E0,0E0,0E0,0E0,0E0,0E0,0E0,0E0,0E0,0E0],"parents":[2147483647,0,0,1,1,2,2,3,3,4,4,5,5,6,6,7,7,8,8,9,9,10,10,11,11,12,12,13,13,14,14],"right_children":[2,4,6,8,10,12,14,16,18,20,22,24,26,28,30,-1,-1,-1,-1,-1,-1,-1,-1,-1,-1,-1,-1,-1,-1,-1,-1],"split_conditions":[6.25E2,5.85E2,1.25E2,1.375E2,1.11E2,6.6E2,1.7E2,1.3E2,1.55E2,6.05E2,1.6E2,1E2,6.8E2,7.05E2,2.1E2,-9.7402555E-1,-7.44264E0,1.0917515E0,2.2350566E0,-5.2560383E-1,-2.1617441E-1,4.2174464E-1,1.7477818E0,3.114794E-2,2.6733908E-1,5.0138265E-1,8.301186E-1,1.0013722E0,1.6322784E0,2.274612E0,3.389499E0],"split_indices":[4,7,9,11,9,4,9,11,9,4,9,8,4,4,9,0,0,0,0,0,0,0,0,0,0,0,0,0,0,0,0],"split_type":[0,0,0,0,0,0,0,0,0,0,0,0,0,0,0,0,0,0,0,0,0,0,0,0,0,0,0,0,0,0,0],"sum_hessian":[2.372E4,1.2663E4,1.1057E4,2.93E3,9.733E3,8.956E3,2.101E3,2.912E3,1.8E1,9.361E3,3.72E2,5.882E3,3.074E3,1.799E3,3.02E2,2.909E3,3E0,1.4E1,4E0,5.638E3,3.723E3,3.07E2,6.5E1,1.721E3,4.161E3,1.493E3,1.581E3,1.085E3,7.14E2,2.06E2,9.6E1],"tree_param":{"num_deleted":"0","num_feature":"28","num_nodes":"31","size_leaf_vector":"1"}},{"base_weights":[-7.632674E-2,-7.062552E0,1.7330091E1,-1.2751037E1,-2.5898474E-1,1.3709661E1,4.036307E1,-1.863039E1,-9.522964E0,-3.287961E0,2.987909E0,9.744906E0,2.01611E1,3.5681957E1,5.7320774E1,-9.482881E-1,4.4519883E-1,-5.6150085E-1,-4.0556893E-1,-2.6118665E0,-1.5820573E-1,1.3996357E-1,8.122598E-1,1.247681E0,4.5216584E-1,9.5000696E-1,1.575349E0,1.7058897E0,2.806853E0,2.6089962E0,3.5939026E0],"categories":[],"categories_nodes":[],"categories_segments":[],"categories_sizes":[],"default_left":[0,0,0,0,0,0,0,0,0,0,0,0,0,0,0,0,0,0,0,0,0,0,0,0,0,0,0,0,0,0,0],"id":22,"left_children":[1,3,5,7,9,11,13,15,17,19,21,23,25,27,29,-1,-1,-1,-1,-1,-1,-1,-1,-1,-1,-1,-1,-1,-1,-1,-1],"loss_changes":[2.8867802E6,6.556019E5,5.663835E5,1.7490862E5,7.588519E4,1.5011262E5,7.117675E4,3.03605E4,1.4256E4,2.4007402E4,9.258074E3,3.86185E4,2.8829E4,2.1267938E4,1.1005E4,0E0,0E0,0E0,0E0,0E0,0E0,0E0,0E0,0E0,0E0,0E0,0E0,0E0,0E0,0E0,0E0],"parents":[2147483647,0,0,1,1,2,2,3,3,4,4,5,5,6,6,7,7,8,8,9,9,10,10,11,11,12,12,13,13,14,14],"right_children":[2,4,6,8,10,12,14,16,18,20,22,24,26,28,30,-1,-1,-1,-1,-1,-1,-1,-1,-1,-1,-1,-1,-1,-1,-1,-1],"split_conditions":[6.45E2,6.075E2,7.15E2,5.875E2,6.3E2,6.75E2,7.7E2,1.025E2,5.98E2,5.7E2,1.55E2,6.4E2,1.5E2,2.05E2,8.1E2,-9.482881E-1,4.4519883E-1,-5.6150085E-1,-4.0556893E-1,-2.6118665E0,-1.5820573E-1,1.3996357E-1,8.122598E-1,1.247681E0,4.5216584E-1,9.5000696E-1,1.575349E0,1.7058897E0,2.806853E0,2.6089962E0,3.5939026E0],"split_indices":[2,2,2,2,2,2,2,11,2,7,8,3,9,9,2,0,0,0,0,0,0,0,0,0,0,0,0,0,0,0,0],"split_type":[0,0,0,0,0,0,0,0,0,0,0,0,0,0,0,0,0,0,0,0,0,0,0,0,0,0,0,0,0,0,0],"sum_hessian":[2.3737E4,1.6939E4,6.798E3,9.225E3,7.714E3,5.876E3,9.22E2,3.268E3,5.957E3,3.991E3,3.723E3,3.641E3,2.235E3,7.25E2,1.97E2,3.229E3,3.9E1,2.693E3,3.264E3,9E0,3.982E3,3.672E3,5.1E1,1.59E2,3.482E3,2.03E3,2.05E2,6.76E2,4.9E1,1.49E2,4.8E1],"tree_param":{"num_deleted":"0","num_feature":"28","num_nodes":"31","size_leaf_vector":"1"}},{"base_weights":[-3.2265417E-2,-8.819679E0,1.1057706E1,-1.4805153E1,-4.971036E0,7.186296E0,2.645885E1,-2.060922E1,-1.2416467E1,-5.3699017E0,2.1686611E1,4.6412544E0,1.5038444E1,2.2383059E1,4.7873566E1,-1.0142406E0,-3.3579807E0,-7.227029E0,-6.134471E-1,-3.9754352E-1,-1.3823012E-1,6.887221E-1,1.9088191E0,1.2409385E-1,3.7030405E-1,5.348351E-1,8.338289E-1,9.8123664E-1,1.6554234E0,2.0603821E0,3.1171336E0],"categories":[],"categories_nodes":[],"categories_segments":[],"categories_sizes":[],"default_left":[0,0,0,0,0,0,0,0,0,0,0,0,0,0,0,0,0,0,0,0,0,0,0,0,0,0,0,0,0,0,0],"id":23,"left_children":[1,3,5,7,9,11,13,15,17,19,21,23,25,27,29,-1,-1,-1,-1,-1,-1,-1,-1,-1,-1,-1,-1,-1,-1,-1,-1],"loss_changes":[2.3126362E6,3.0491238E5,6.2531E5,7.15575E4,8.5808766E4,1.674866E5,1.8279638E5,2.1381875E4,6.974044E4,5.337622E4,1.4974074E4,3.779258E4,1.44025E4,5.1746938E4,2.9786375E4,0E0,0E0,0E0,0E0,0E0,0E0,0E0,0E0,0E0,0E0,0E0,0E0,0E0,0E0,0E0,0E0],"parents":[2147483647,0,0,1,1,2,2,3,3,4,4,5,5,6,6,7,7,8,8,9,9,10,10,11,11,12,12,13,13,14,14],"right_children":[2,4,6,8,10,12,14,16,18,20,22,24,26,28,30,-1,-1,-1,-1,-1,-1,-1,-1,-1,-1,-1,-1,-1,-1,-1,-1],"split_conditions":[6.3E2,5.95E2,1.25E2,5.7E2,1.35E2,6.7E2,1.7E2,3E1,2E1,6.075E2,1.6E2,6.45E2,6.8E2,7.3E2,2.1E2,-1.0142406E0,-3.3579807E0,-7.227029E0,-6.134471E-1,-3.9754352E-1,-1.3823012E-1,6.887221E-1,1.9088191E0,1.2409385E-1,3.7030405E-1,5.348351E-1,8.338289E-1,9.8123664E-1,1.6554234E0,2.0603821E0,3.1171336E0],"split_indices":[3,3,9,6,9,3,10,12,9,3,8,3,3,3,10,0,0,0,0,0,0,0,0,0,0,0,0,0,0,0,0],"split_type":[0,0,0,0,0,0,0,0,0,0,0,0,0,0,0,0,0,0,0,0,0,0,0,0,0,0,0,0,0,0,0],"sum_hessian":[2.3729E4,1.3239E4,1.049E4,5.18E3,8.059E3,8.384E3,2.106E3,1.508E3,3.672E3,7.941E3,1.18E2,6.333E3,2.051E3,1.771E3,3.35E2,1.499E3,9E0,3E0,3.669E3,3.988E3,3.953E3,8.1E1,3.7E1,3.557E3,2.776E3,5.64E2,1.487E3,1.411E3,3.6E2,2.32E2,1.03E2],"tree_param":{"num_deleted":"0","num_feature":"28","num_nodes":"31","size_leaf_vector":"1"}},{"base_weights":[2.857407E-3,-6.350609E0,1.5769598E1,-1.1940294E1,-6.244219E-1,1.1773716E1,3.370881E1,-1.6955212E1,-8.871163E0,-3.3623457E0,2.7849064E0,8.939372E0,1.7948349E1,2.9846409E1,5.2985817E1,-8.6426085E-1,4.9117813E-1,-4.5477596E-1,3.5156425E-2,-1.8336086E-1,8.537386E-1,5.635795E-1,1.1462219E-1,4.256104E-1,1.4625523E0,1.4322764E0,8.213548E-1,1.32884E0,1.92442E0,2.4952574E0,3.6575208E0],"categories":[],"categories_nodes":[],"categories_segments":[],"categories_sizes":[],"default_left":[0,0,0,0,0,0,0,0,0,0,0,0,0,0,0,0,0,0,0,0,0,0,0,0,0,0,0,0,0,0,0],"id":24,"left_children":[1,3,5,7,9,11,13,15,17,19,21,23,25,27,29,-1,-1,-1,-1,-1,-1,-1,-1,-1,-1,-1,-1,-1,-1,-1,-1],"loss_changes":[2.3674038E6,5.39154E5,4.8616438E5,1.3103325E5,7.7691195E4,9.7009375E4,9.0404125E4,2.8761688E4,1.1373781E4,2.8816828E4,1.5460324E4,3.2771906E4,2.7919812E4,2.8104625E4,9.0225625E3,0E0,0E0,0E0,0E0,0E0,0E0,0E0,0E0,0E0,0E0,0E0,0E0,0E0,0E0,0E0,0E0],"parents":[2147483647,0,0,1,1,2,2,3,3,4,4,5,5,6,6,7,7,8,8,9,9,10,10,11,11,12,12,13,13,14,14],"right_children":[2,4,6,8,10,12,14,16,18,20,22,24,26,28,30,-1,-1,-1,-1,-1,-1,-1,-1,-1,-1,-1,-1,-1,-1,-1,-1],"split_conditions":[6.45E2,6.025E2,7.05E2,5.875E2,6.3E2,6.8E2,7.7E2,1.025E2,1E0,1.4E2,6.3E2,1.6E2,6.8E2,1.5E2,8.2E2,-8.6426085E-1,4.9117813E-1,-4.5477596E-1,3.5156425E-2,-1.8336086E-1,8.537386E-1,5.635795E-1,1.1462219E-1,4.256104E-1,1.4625523E0,1.4322764E0,8.213548E-1,1.32884E0,1.92442E0,2.4952574E0,3.6575208E0],"split_indices":[2,2,2,2,2,2,2,11,15,8,3,8,3,8,2,0,0,0,0,0,0,0,0,0,0,0,0,0,0,0,0],"split_type":[0,0,0,0,0,0,0,0,0,0,0,0,0,0,0,0,0,0,0,0,0,0,0,0,0,0,0,0,0,0,0],"sum_hessian":[2.3631E4,1.6844E4,6.787E3,8.523E3,8.321E3,5.552E3,1.235E3,3.234E3,5.289E3,4.615E3,3.706E3,3.807E3,1.745E3,1.031E3,2.04E2,3.195E3,3.9E1,5.168E3,1.21E2,4.548E3,6.7E1,2.02E2,3.504E3,3.73E3,7.7E1,2.15E2,1.53E3,7.51E2,2.8E2,1.8E2,2.4E1],"tree_param":{"num_deleted":"0","num_feature":"28","num_nodes":"31","size_leaf_vector":"1"}},{"base_weights":[3.2249082E-2,-7.933738E0,1.0141085E1,-1.5373128E1,-5.5188046E0,6.442489E0,2.4494625E1,-1.5924526E1,7.734605E0,-6.8902884E0,4.67345E-1,4.0993195E0,1.3646422E1,1.9915255E1,4.1075344E1,-9.546561E-1,-6.548349E-1,2.2426045E-1,2.2406678E0,-3.6428532E-1,2.8592548E-1,-3.019535E-2,1.2302415E0,1.1033224E-1,3.2733843E-1,6.297917E-1,1.038778E0,8.4507865E-1,1.4272668E0,1.704621E0,2.6022353E0],"categories":[],"categories_nodes":[],"categories_segments":[],"categories_sizes":[],"default_left":[0,0,0,0,0,0,0,0,0,0,0,0,0,0,0,0,0,0,0,0,0,0,0,0,0,0,0,0,0,0,0],"id":25,"left_children":[1,3,5,7,9,11,13,15,17,19,21,23,25,27,29,-1,-1,-1,-1,-1,-1,-1,-1,-1,-1,-1,-1,-1,-1,-1,-1],"loss_changes":[1.8998712E6,2.3696131E5,5.518351E5,4.1320625E4,8.180172E4,1.3951625E5,1.6088075E5,2.803025E4,8.931102E3,4.0456844E4,4.8069777E4,2.8890883E4,1.4918375E4,4.2954812E4,3.341775E4,0E0,0E0,0E0,0E0,0E0,0E0,0E0,0E0,0E0,0E0,0E0,0E0,0E0,0E0,0E0,0E0],"parents":[2147483647,0,0,1,1,2,2,3,3,4,4,5,5,6,6,7,7,8,8,9,9,10,10,11,11,12,12,13,13,14,14],"right_children":[2,4,6,8,10,12,14,16,18,20,22,24,26,28,30,-1,-1,-1,-1,-1,-1,-1,-1,-1,-1,-1,-1,-1,-1,-1,-1],"split_conditions":[6.3E2,5.875E2,1.25E2,1.025E2,9.6E1,6.7E2,1.6E2,5.7E2,1.55E2,1E0,1.45E2,6.45E2,7.1E2,7.2E2,7.5E2,-9.546561E-1,-6.548349E-1,2.2426045E-1,2.2406678E0,-3.6428532E-1,2.8592548E-1,-3.019535E-2,1.2302415E0,1.1033224E-1,3.2733843E-1,6.297917E-1,1.038778E0,8.4507865E-1,1.4272668E0,1.704621E0,2.6022353E0],"split_indices":[3,3,9,10,9,3,10,7,10,15,9,3,3,3,3,0,0,0,0,0,0,0,0,0,0,0,0,0,0,0,0],"split_type":[0,0,0,0,0,0,0,0,0,0,0,0,0,0,0,0,0,0,0,0,0,0,0,0,0,0,0,0,0,0,0],"sum_hessian":[2.3591E4,1.3194E4,1.0397E4,3.232E3,9.962E3,8.268E3,2.129E3,3.157E3,7.5E1,8.105E3,1.857E3,6.24E3,2.028E3,1.67E3,4.59E2,1.486E3,1.671E3,7E1,5E0,7.859E3,2.46E2,1.779E3,7.8E1,3.52E3,2.72E3,1.77E3,2.58E2,1.24E3,4.3E2,2.83E2,1.76E2],"tree_param":{"num_deleted":"0","num_feature":"28","num_nodes":"31","size_leaf_vector":"1"}},{"base_weights":[1.2784024E-1,-5.7346106E0,1.4654747E1,-1.0857701E1,-5.0241095E-1,1.090521E1,3.1384943E1,-1.5631989E1,-8.329713E0,-3.0320508E0,2.6300402E0,7.907906E0,1.633755E1,2.5614286E1,4.2354233E1,-7.9854965E-1,1.0191437E0,-5.0192064E-1,-3.6049372E-1,-1.620317E-1,8.9066327E-1,5.7531005E-1,1.0558777E-1,1.0886493E0,3.6552522E-1,1.3419881E0,7.420248E-1,1.389668E0,6.8528295E-1,1.8844233E0,2.7609527E0],"categories":[],"categories_nodes":[],"categories_segments":[],"categories_sizes":[],"default_left":[0,0,0,0,0,0,0,0,0,0,0,0,0,0,0,0,0,0,0,0,0,0,0,0,0,0,0,0,0,0,0],"id":26,"left_children":[1,3,5,7,9,11,13,15,17,19,21,23,25,27,29,-1,-1,-1,-1,-1,-1,-1,-1,-1,-1,-1,-1,-1,-1,-1,-1],"loss_changes":[2.0215239E6,4.5331556E5,4.2777225E5,1.02990375E5,6.631598E4,9.066544E4,7.7942875E4,3.6426E4,1.0613406E4,2.0181566E4,1.7169717E4,2.9612047E4,3.0742625E4,2.0903062E4,2.3622812E4,0E0,0E0,0E0,0E0,0E0,0E0,0E0,0E0,0E0,0E0,0E0,0E0,0E0,0E0,0E0,0E0],"parents":[2147483647,0,0,1,1,2,2,3,3,4,4,5,5,6,6,7,7,8,8,9,9,10,10,11,11,12,12,13,13,14,14],"right_children":[2,4,6,8,10,12,14,16,18,20,22,24,26,28,30,-1,-1,-1,-1,-1,-1,-1,-1,-1,-1,-1,-1,-1,-1,-1,-1],"split_conditions":[6.45E2,6.05E2,7.05E2,5.85E2,6.3E2,6.75E2,7.45E2,6.025E2,5.95E2,1.25E2,6.3E2,6.4E2,6.75E2,7.45E2,1.75E2,-7.9854965E-1,1.0191437E0,-5.0192064E-1,-3.6049372E-1,-1.620317E-1,8.9066327E-1,5.7531005E-1,1.0558777E-1,1.0886493E0,3.6552522E-1,1.3419881E0,7.420248E-1,1.389668E0,6.8528295E-1,1.8844233E0,2.7609527E0],"split_indices":[2,2,2,2,2,2,2,3,2,10,3,3,3,4,8,0,0,0,0,0,0,0,0,0,0,0,0,0,0,0,0],"split_type":[0,0,0,0,0,0,0,0,0,0,0,0,0,0,0,0,0,0,0,0,0,0,0,0,0,0,0,0,0,0,0],"sum_hessian":[2.3735E4,1.6911E4,6.824E3,8.544E3,8.367E3,5.576E3,1.248E3,2.956E3,5.588E3,4.629E3,3.738E3,3.595E3,1.981E3,8.2E2,4.28E2,2.929E3,2.7E1,2.209E3,3.379E3,4.584E3,4.5E1,2.05E2,3.533E3,1.47E2,3.448E3,2.45E2,1.736E3,6.92E2,1.28E2,3.17E2,1.11E2],"tree_param":{"num_deleted":"0","num_feature":"28","num_nodes":"31","size_leaf_vector":"1"}},{"base_weights":[-3.4406345E-2,-6.784982E0,1.1073028E1,-1.18595495E1,-3.2955294E0,7.7457623E0,2.5908054E1,-6.881562E0,-1.1773799E1,-5.394159E0,-3.7648037E-1,4.2183666E0,1.2113164E1,2.0376589E1,3.686263E1,-8.2025796E-1,-4.7829863E-1,-2.7616882E-1,5.956903E-1,-2.312163E0,-1.25306165E-2,1.9420628E-1,6.2731475E-1,5.8206624E-1,1.6318337E0,1.1325601E0,6.55074E-1,1.7046417E0,2.9052818E0],"categories":[],"categories_nodes":[],"categories_segments":[],"categories_sizes":[],"default_left":[0,0,0,0,0,0,0,0,0,0,0,0,0,0,0,0,0,0,0,0,0,0,0,0,0,0,0,0,0],"id":27,"left_children":[1,3,5,7,9,11,13,-1,15,17,19,21,23,25,27,-1,-1,-1,-1,-1,-1,-1,-1,-1,-1,-1,-1,-1,-1],"loss_changes":[1.7794609E6,2.6133319E5,4.4259162E5,6.316575E4,5.3585344E4,1.1284806E5,9.87775E4,0E0,6.1294062E4,1.1444141E4,2.109494E4,1.1233078E4,3.1302688E4,1.7788969E4,3.0334125E4,0E0,0E0,0E0,0E0,0E0,0E0,0E0,0E0,0E0,0E0,0E0,0E0,0E0,0E0],"parents":[2147483647,0,0,1,1,2,2,3,3,4,4,5,5,6,6,8,8,9,9,10,10,11,11,12,12,13,13,14,14],"right_children":[2,4,6,8,10,12,14,-1,16,18,20,22,24,26,28,-1,-1,-1,-1,-1,-1,-1,-1,-1,-1,-1,-1,-1,-1],"split_conditions":[6.4E2,5.98E2,6.94E2,2E1,6.2E2,6.55E2,7.325E2,-6.881562E0,5.8E2,1.45E2,5.7E2,1.35E2,1.7E2,7.3E2,8.05E2,-8.2025796E-1,-4.7829863E-1,-2.7616882E-1,5.956903E-1,-2.312163E0,-1.25306165E-2,1.9420628E-1,6.2731475E-1,5.8206624E-1,1.6318337E0,1.1325601E0,6.55074E-1,1.7046417E0,2.9052818E0],"split_indices":[2,2,2,9,2,2,2,0,2,8,5,8,8,6,2,0,0,0,0,0,0,0,0,0,0,0,0,0,0],"split_type":[0,0,0,0,0,0,0,0,0,0,0,0,0,0,0,0,0,0,0,0,0,0,0,0,0,0,0,0,0],"sum_hessian":[2.373E4,1.476E4,8.97E3,6.013E3,8.747E3,7.328E3,1.642E3,3E0,6.01E3,5.088E3,3.659E3,4.055E3,3.273E3,1.093E3,5.49E2,1.938E3,4.072E3,5.051E3,3.7E1,9E0,3.65E3,3.9E3,1.55E2,3.201E3,7.2E1,8.31E2,2.62E2,4.88E2,6.1E1],"tree_param":{"num_deleted":"0","num_feature":"28","num_nodes":"29","size_leaf_vector":"1"}},{"base_weights":[1.1161525E-1,-6.2334867E0,1.0517853E1,-1.1232004E1,-2.8394945E0,7.244222E0,2.4970705E1,-1.5913362E1,-9.29371E0,-4.953558E0,8.6666286E-2,4.060863E0,1.1173944E1,1.9740454E1,3.5365997E1,-7.806274E-1,-3.3081167E0,-4.7022626E-1,1.5033829E0,-2.6751217E-1,3.7889052E-2,-2.829265E-2,2.7985737E-1,5.9086376E-1,1.7972003E-1,1.1363746E0,5.008496E-1,1.1641823E0,7.3041064E-1,1.575426E0,2.356568E0],"categories":[],"categories_nodes":[],"categories_segments":[],"categories_sizes":[],"default_left":[0,0,0,0,0,0,0,0,0,0,0,0,0,0,0,0,0,0,0,0,0,0,0,0,0,0,0,0,0,0,0],"id":28,"left_children":[1,3,5,7,9,11,13,15,17,19,21,23,25,27,29,-1,-1,-1,-1,-1,-1,-1,-1,-1,-1,-1,-1,-1,-1,-1,-1],"loss_changes":[1.5578814E6,2.4861606E5,4.2264194E5,5.3620188E4,5.401361E4,9.111781E4,8.898481E4,2.5136562E4,1.8566094E4,1.1490711E4,1.3176714E4,1.4523422E4,4.334547E4,1.9643906E4,2.3482625E4,0E0,0E0,0E0,0E0,0E0,0E0,0E0,0E0,0E0,0E0,0E0,0E0,0E0,0E0,0E0,0E0],"parents":[2147483647,0,0,1,1,2,2,3,3,4,4,5,5,6,6,7,7,8,8,9,9,10,10,11,11,12,12,13,13,14,14],"right_children":[2,4,6,8,10,12,14,16,18,20,22,24,26,28,30,-1,-1,-1,-1,-1,-1,-1,-1,-1,-1,-1,-1,-1,-1,-1,-1],"split_conditions":[6.4E2,5.98E2,6.94E2,5.75E2,6.2E2,6.55E2,7.325E2,1E0,6.5E2,1.025E2,1.06E2,6.4E2,6.55E2,7.1E2,7.85E2,-7.806274E-1,-3.3081167E0,-4.7022626E-1,1.5033829E0,-2.6751217E-1,3.7889052E-2,-2.829265E-2,2.7985737E-1,5.9086376E-1,1.7972003E-1,1.1363746E0,5.008496E-1,1.1641823E0,7.3041064E-1,1.575426E0,2.356568E0],"split_indices":[2,2,2,6,2,2,2,19,3,9,9,3,3,5,2,0,0,0,0,0,0,0,0,0,0,0,0,0,0,0,0],"split_type":[0,0,0,0,0,0,0,0,0,0,0,0,0,0,0,0,0,0,0,0,0,0,0,0,0,0,0,0,0,0,0],"sum_hessian":[2.3592E4,1.4656E4,8.936E3,5.926E3,8.73E3,7.287E3,1.649E3,1.733E3,4.193E3,5.068E3,3.662E3,4.027E3,3.26E3,1.099E3,5.5E2,1.724E3,9E0,4.182E3,1.1E1,4.739E3,3.29E2,3.275E3,3.87E2,2.27E2,3.8E3,2.95E2,2.965E3,6.48E2,4.51E2,4.17E2,1.33E2],"tree_param":{"num_deleted":"0","num_feature":"28","num_nodes":"31","size_leaf_vector":"1"}},{"base_weights":[-8.050815E-2,-6.909238E0,7.799092E0,-1.11012125E1,-3.9797597E0,5.5685334E0,2.3598932E1,-1.5755319E1,-9.130273E0,-4.2615705E0,1.7922422E1,2.693516E0,1.0515844E1,1.9468863E1,3.641673E1,-7.713749E-1,-4.2870545E0,-4.8410922E-1,3.704211E-2,-2.9094595E-1,-1.20182745E-1,5.880793E-1,1.4834198E0,8.101689E-2,2.4698138E-1,3.8312972E-1,6.4290035E-1,7.726681E-1,1.3049693E0,1.5484585E0,2.4142554E0],"categories":[],"categories_nodes":[],"categories_segments":[],"categories_sizes":[],"default_left":[0,0,0,0,0,0,0,0,0,0,0,0,0,0,0,0,0,0,0,0,0,0,0,0,0,0,0,0,0,0,0],"id":29,"left_children":[1,3,5,7,9,11,13,15,17,19,21,23,25,27,29,-1,-1,-1,-1,-1,-1,-1,-1,-1,-1,-1,-1,-1,-1,-1,-1],"loss_changes":[1.2734655E6,1.5565025E5,3.870983E5,4.7680688E4,4.6145555E4,1.3693838E5,7.120631E4,3.418803E4,1.9983969E4,2.1309297E4,6.5050156E3,1.4673348E4,2.3541562E4,2.6999531E4,1.980075E4,0E0,0E0,0E0,0E0,0E0,0E0,0E0,0E0,0E0,0E0,0E0,0E0,0E0,0E0,0E0,0E0],"parents":[2147483647,0,0,1,1,2,2,3,3,4,4,5,5,6,6,7,7,8,8,9,9,10,10,11,11,12,12,13,13,14,14],"right_children":[2,4,6,8,10,12,14,16,18,20,22,24,26,28,30,-1,-1,-1,-1,-1,-1,-1,-1,-1,-1,-1,-1,-1,-1,-1,-1],"split_conditions":[6.25E2,5.925E2,1.35E2,5.7E2,1.35E2,6.6E2,1.7E2,1E0,9.6E1,6.075E2,1.6E2,6.45E2,6.8E2,7.2E2,2.1E2,-7.713749E-1,-4.2870545E0,-4.8410922E-1,3.704211E-2,-2.9094595E-1,-1.20182745E-1,5.880793E-1,1.4834198E0,8.101689E-2,2.4698138E-1,3.8312972E-1,6.4290035E-1,7.726681E-1,1.3049693E0,1.5484585E0,2.4142554E0],"split_indices":[3,3,9,5,9,3,9,19,8,3,8,3,3,3,9,0,0,0,0,0,0,0,0,0,0,0,0,0,0,0,0],"split_type":[0,0,0,0,0,0,0,0,0,0,0,0,0,0,0,0,0,0,0,0,0,0,0,0,0,0,0,0,0,0,0],"sum_hessian":[2.3665E4,1.2678E4,1.0987E4,5.214E3,7.464E3,9.629E3,1.358E3,1.549E3,3.665E3,7.37E3,9.4E1,6.091E3,3.538E3,1.029E3,3.29E2,1.543E3,6E0,3.471E3,1.94E2,4.008E3,3.362E3,6.3E1,3.1E1,4.123E3,1.968E3,1.597E3,1.941E3,6.43E2,3.86E2,2.28E2,1.01E2],"tree_param":{"num_deleted":"0","num_feature":"28","num_nodes":"31","size_leaf_vector":"1"}},{"base_weights":[2.825694E-2,-4.707303E0,1.1916248E1,-8.569195E0,-1.7207865E-1,9.316807E0,2.8329369E1,-1.4242664E1,-7.0563226E0,-2.5944023E0,1.7351005E0,6.5898194E0,1.4364999E1,2.5417904E1,4.3062115E1,-7.2415966E-1,1.2673544E0,-4.3171316E-1,-2.8872392E-1,-4.4705644E0,-1.2209282E-1,4.9222636E-1,6.37879E-2,1.1264273E0,3.0493018E-1,1.2063997E0,6.5547794E-1,1.1776936E0,1.9089854E0,1.8164701E0,2.406717E0],"categories":[],"categories_nodes":[],"categories_segments":[],"categories_sizes":[],"default_left":[0,0,0,0,0,0,0,0,0,0,0,0,0,0,0,0,0,0,0,0,0,0,0,0,0,0,0,0,0,0,0],"id":30,"left_children":[1,3,5,7,9,11,13,15,17,19,21,23,25,27,29,-1,-1,-1,-1,-1,-1,-1,-1,-1,-1,-1,-1,-1,-1,-1,-1],"loss_changes":[1.3363085E6,2.9730356E5,2.8821756E5,7.857994E4,3.607637E4,8.027666E4,3.8505188E4,1.8730531E4,1.4587094E4,4.529363E4,1.6256428E4,2.9545047E4,2.4754812E4,1.7482031E4,3.3657188E3,0E0,0E0,0E0,0E0,0E0,0E0,0E0,0E0,0E0,0E0,0E0,0E0,0E0,0E0,0E0,0E0],"parents":[2147483647,0,0,1,1,2,2,3,3,4,4,5,5,6,6,7,7,8,8,9,9,10,10,11,11,12,12,13,13,14,14],"right_children":[2,4,6,8,10,12,14,16,18,20,22,24,26,28,30,-1,-1,-1,-1,-1,-1,-1,-1,-1,-1,-1,-1,-1,-1,-1,-1],"split_conditions":[6.45E2,6.075E2,7.15E2,5.8E2,6.25E2,6.8E2,1.75E2,1.25E2,5.95E2,5.7E2,6.25E2,6.35E2,6.8E2,7.8E2,7.6E2,-7.2415966E-1,1.2673544E0,-4.3171316E-1,-2.8872392E-1,-4.4705644E0,-1.2209282E-1,4.9222636E-1,6.37879E-2,1.1264273E0,3.0493018E-1,1.2063997E0,6.5547794E-1,1.1776936E0,1.9089854E0,1.8164701E0,2.406717E0],"split_indices":[2,2,2,2,2,2,8,11,2,5,3,3,3,2,2,0,0,0,0,0,0,0,0,0,0,0,0,0,0,0,0],"split_type":[0,0,0,0,0,0,0,0,0,0,0,0,0,0,0,0,0,0,0,0,0,0,0,0,0,0,0,0,0,0,0],"sum_hessian":[2.3735E4,1.6974E4,6.761E3,9.167E3,7.807E3,5.838E3,9.23E2,1.928E3,7.239E3,3.439E3,4.368E3,3.792E3,2.046E3,7.73E2,1.5E2,1.917E3,1.1E1,3.242E3,3.997E3,5E0,3.434E3,2.33E2,4.135E3,1.12E2,3.68E3,2.31E2,1.815E3,6.77E2,9.6E1,6.8E1,8.2E1],"tree_param":{"num_deleted":"0","num_feature":"28","num_nodes":"31","size_leaf_vector":"1"}},{"base_weights":[1.840949E-1,-5.5499206E0,9.03391E0,-1.2071058E1,-3.6501772E0,6.589434E0,2.4789772E1,-1.2271902E1,2.0993938E1,-5.2666683E0,9.093006E-2,4.162578E0,1.1926866E1,2.2024342E1,3.92648E1,-7.1695006E-1,-5.2773756E-1,5.198576E-1,1.776349E0,-2.7692065E-1,2.0389152E-1,-6.020121E-3,7.527389E-1,1.9639847E-1,1.1674212E0,1.0748061E0,5.389069E-1,1.0064939E0,1.5115768E0,1.7896168E0,2.818056E0],"categories":[],"categories_nodes":[],"categories_segments":[],"categories_sizes":[],"default_left":[0,0,0,0,0,0,0,0,0,0,0,0,0,0,0,0,0,0,0,0,0,0,0,0,0,0,0,0,0,0,0],"id":31,"left_children":[1,3,5,7,9,11,13,15,17,19,21,23,25,27,29,-1,-1,-1,-1,-1,-1,-1,-1,-1,-1,-1,-1,-1,-1,-1,-1],"loss_changes":[1.2063614E6,1.7866438E5,3.5981906E5,2.1862719E4,6.757141E4,1.04772375E5,4.9341875E4,1.1318906E4,2.6877285E3,1.9835047E4,1.0672713E4,2.4943664E4,2.7552125E4,1.57851875E4,9.809906E3,0E0,0E0,0E0,0E0,0E0,0E0,0E0,0E0,0E0,0E0,0E0,0E0,0E0,0E0,0E0,0E0],"parents":[2147483647,0,0,1,1,2,2,3,3,4,4,5,5,6,6,7,7,8,8,9,9,10,10,11,11,12,12,13,13,14,14],"right_children":[2,4,6,8,10,12,14,16,18,20,22,24,26,28,30,-1,-1,-1,-1,-1,-1,-1,-1,-1,-1,-1,-1,-1,-1,-1,-1],"split_conditions":[6.35E2,5.875E2,7.05E2,6.3E2,6.2E2,6.7E2,7.7E2,5.65E2,1.2E2,1E0,1.5E2,1.6E2,6.7E2,1.55E2,8.2E2,-7.1695006E-1,-5.2773756E-1,5.198576E-1,1.776349E0,-2.7692065E-1,2.0389152E-1,-6.020121E-3,7.527389E-1,1.9639847E-1,1.1674212E0,1.0748061E0,5.389069E-1,1.0064939E0,1.5115768E0,1.7896168E0,2.818056E0],"split_indices":[2,2,2,3,2,2,2,5,10,15,8,8,3,8,2,0,0,0,0,0,0,0,0,0,0,0,0,0,0,0,0],"split_type":[0,0,0,0,0,0,0,0,0,0,0,0,0,0,0,0,0,0,0,0,0,0,0,0,0,0,0,0,0,0,0],"sum_hessian":[2.3771E4,1.4425E4,9.346E3,3.253E3,1.1172E4,8.092E3,1.254E3,3.234E3,1.9E1,7.801E3,3.371E3,5.564E3,2.528E3,1.055E3,1.99E2,1.464E3,1.77E3,1.2E1,7E0,7.581E3,2.2E2,3.325E3,4.6E1,5.498E3,6.6E1,2.69E2,2.259E3,8.6E2,1.95E2,1.68E2,3.1E1],"tree_param":{"num_deleted":"0","num_feature":"28","num_nodes":"31","size_leaf_vector":"1"}},{"base_weights":[-6.941517E-2,-4.382455E0,1.0746337E1,-8.072386E0,-5.925578E-1,8.150064E0,2.4107609E1,-6.5548716E0,-8.014006E0,-2.5931728E0,1.3140808E0,5.273724E0,1.1484546E1,2.0347507E1,3.5674908E1,-5.6163913E-1,-3.0174863E-1,-3.0146737E0,-1.2394985E-1,7.218818E-1,5.902171E-2,1.0064448E0,2.3595606E-1,1.0147775E0,5.203877E-1,1.6933142E0,9.309009E-1,1.6460654E0,2.6525562E0],"categories":[],"categories_nodes":[],"categories_segments":[],"categories_sizes":[],"default_left":[0,0,0,0,0,0,0,0,0,0,0,0,0,0,0,0,0,0,0,0,0,0,0,0,0,0,0,0,0],"id":32,"left_children":[1,3,5,7,9,11,13,-1,15,17,19,21,23,25,27,-1,-1,-1,-1,-1,-1,-1,-1,-1,-1,-1,-1,-1,-1],"loss_changes":[1.1048268E6,2.3677581E5,2.3401094E5,6.0496625E4,3.1869957E4,5.416875E4,4.700275E4,0E0,5.4553312E4,2.6678334E4,7.478411E3,2.4921828E4,2.4611969E4,1.8772531E4,1.10335625E4,0E0,0E0,0E0,0E0,0E0,0E0,0E0,0E0,0E0,0E0,0E0,0E0,0E0,0E0],"parents":[2147483647,0,0,1,1,2,2,3,3,4,4,5,5,6,6,8,8,9,9,10,10,11,11,12,12,13,13,14,14],"right_children":[2,4,6,8,10,12,14,-1,16,18,20,22,24,26,28,-1,-1,-1,-1,-1,-1,-1,-1,-1,-1,-1,-1,-1,-1],"split_conditions":[6.45E2,6.05E2,7.1E2,2E1,6.25E2,6.7E2,7.6E2,-6.5548716E0,5.875E2,5.7E2,6.025E2,6.35E2,6.7E2,7E2,8.2E2,-5.6163913E-1,-3.0174863E-1,-3.0146737E0,-1.2394985E-1,7.218818E-1,5.902171E-2,1.0064448E0,2.3595606E-1,1.0147775E0,5.203877E-1,1.6933142E0,9.309009E-1,1.6460654E0,2.6525562E0],"split_indices":[2,2,2,9,2,2,2,0,2,5,3,3,3,3,2,0,0,0,0,0,0,0,0,0,0,0,0,0,0],"split_type":[0,0,0,0,0,0,0,0,0,0,0,0,0,0,0,0,0,0,0,0,0,0,0,0,0,0,0,0,0],"sum_hessian":[2.3682E4,1.6931E4,6.751E3,8.578E3,8.353E3,5.654E3,1.097E3,3E0,8.575E3,4.076E3,4.277E3,3.037E3,2.617E3,8.3E2,2.67E2,3.263E3,5.312E3,7E0,4.069E3,4.2E1,4.235E3,1.08E2,2.929E3,2.83E2,2.334E3,9.2E1,7.38E2,2.33E2,3.4E1],"tree_param":{"num_deleted":"0","num_feature":"28","num_nodes":"29","size_leaf_vector":"1"}},{"base_weights":[3.5236854E-2,-5.1190906E0,7.978057E0,-8.710632E0,-2.5620341E0,5.5805407E0,2.0502014E1,-6.309064E0,-8.63026E0,-2.770878E0,1.1830577E1,2.98426E0,8.944077E0,1.669098E1,3.0151413E1,-6.3448995E-1,-3.594775E-1,-2.4189082E-1,-7.425981E-2,1.8814862E0,4.6976218E-1,6.967569E-1,1.2883545E-1,1.0743359E0,4.0790963E-1,9.042689E-1,3.211274E-1,1.323774E0,2.049616E0],"categories":[],"categories_nodes":[],"categories_segments":[],"categories_sizes":[],"default_left":[0,0,0,0,0,0,0,0,0,0,0,0,0,0,0,0,0,0,0,0,0,0,0,0,0,0,0,0,0],"id":33,"left_children":[1,3,5,7,9,11,13,-1,15,17,19,21,23,25,27,-1,-1,-1,-1,-1,-1,-1,-1,-1,-1,-1,-1,-1,-1],"loss_changes":[9.681889E5,1.3168572E5,2.7932812E5,5.5151312E4,2.5213941E4,6.819581E4,5.4450688E4,0E0,3.476247E4,2.1939988E4,7.16249E3,1.9642328E4,3.3353438E4,1.5249406E4,1.5697875E4,0E0,0E0,0E0,0E0,0E0,0E0,0E0,0E0,0E0,0E0,0E0,0E0,0E0,0E0],"parents":[2147483647,0,0,1,1,2,2,3,3,4,4,5,5,6,6,8,8,9,9,10,10,11,11,12,12,13,13,14,14],"right_children":[2,4,6,8,10,12,14,-1,16,18,20,22,24,26,28,-1,-1,-1,-1,-1,-1,-1,-1,-1,-1,-1,-1,-1,-1],"split_conditions":[6.35E2,5.98E2,7E2,2E1,1.4E2,6.55E2,7.45E2,-6.309064E0,5.7E2,6.075E2,5.925E2,6.3E2,6.5E2,7.45E2,1.75E2,-6.3448995E-1,-3.594775E-1,-2.4189082E-1,-7.425981E-2,1.8814862E0,4.6976218E-1,6.967569E-1,1.2883545E-1,1.0743359E0,4.0790963E-1,9.042689E-1,3.211274E-1,1.323774E0,2.049616E0],"split_indices":[2,2,2,9,8,2,2,0,3,2,3,3,3,4,8,0,0,0,0,0,0,0,0,0,0,0,0,0,0],"split_type":[0,0,0,0,0,0,0,0,0,0,0,0,0,0,0,0,0,0,0,0,0,0,0,0,0,0,0,0,0],"sum_hessian":[2.3647E4,1.4341E4,9.306E3,5.963E3,8.378E3,7.812E3,1.494E3,3E0,5.96E3,8.259E3,1.19E2,4.41E3,3.402E3,1.073E3,4.21E2,1.559E3,4.401E3,3.166E3,5.093E3,9E0,1.1E2,1.57E2,4.253E3,1.99E2,3.203E3,9.44E2,1.29E2,3.17E2,1.04E2],"tree_param":{"num_deleted":"0","num_feature":"28","num_nodes":"29","size_leaf_vector":"1"}},{"base_weights":[-4.3492973E-2,-5.4060836E0,6.078781E0,-8.776033E0,-3.1042845E0,4.5333204E0,2.0056223E1,-1.2311558E1,-7.2178407E0,-3.5693405E0,9.25053E0,2.5761752E0,9.164985E0,1.798912E1,3.952745E1,-5.988235E-1,-4.265094E0,-3.6837253E-1,1.320301E0,-1.9687484E-1,3.667257E-1,2.84348E-1,1.4926825E0,1.05561495E-1,4.7432956E-1,4.275878E-1,8.665587E-1,7.3984224E-1,1.2093372E0,2.0177271E0,1.2196083E0],"categories":[],"categories_nodes":[],"categories_segments":[],"categories_sizes":[],"default_left":[0,0,0,0,0,0,0,0,0,0,0,0,0,0,0,0,0,0,0,0,0,0,0,0,0,0,0,0,0,0,0],"id":34,"left_children":[1,3,5,7,9,11,13,15,17,19,21,23,25,27,29,-1,-1,-1,-1,-1,-1,-1,-1,-1,-1,-1,-1,-1,-1,-1,-1],"loss_changes":[7.792165E5,9.810772E4,2.392855E5,2.8184719E4,4.3231945E4,9.0437625E4,4.3654875E4,3.730472E4,1.812364E4,2.9118984E4,1.985629E4,2.2519559E4,1.4681797E4,1.9387375E4,2.9770312E2,0E0,0E0,0E0,0E0,0E0,0E0,0E0,0E0,0E0,0E0,0E0,0E0,0E0,0E0,0E0,0E0],"parents":[2147483647,0,0,1,1,2,2,3,3,4,4,5,5,6,6,7,7,8,8,9,9,10,10,11,11,12,12,13,13,14,14],"right_children":[2,4,6,8,10,12,14,16,18,20,22,24,26,28,30,-1,-1,-1,-1,-1,-1,-1,-1,-1,-1,-1,-1,-1,-1,-1,-1],"split_conditions":[6.25E2,5.925E2,1.375E2,5.7E2,1.11E2,6.7E2,2.1E2,1E0,1.6E2,1E0,1.6E2,1E0,1E0,7.25E2,3.05E2,-5.988235E-1,-4.265094E0,-3.6837253E-1,1.320301E0,-1.9687484E-1,3.667257E-1,2.84348E-1,1.4926825E0,1.05561495E-1,4.7432956E-1,4.275878E-1,8.665587E-1,7.3984224E-1,1.2093372E0,2.0177271E0,1.2196083E0],"split_indices":[3,6,8,5,9,3,9,18,9,15,8,15,15,3,8,0,0,0,0,0,0,0,0,0,0,0,0,0,0,0,0],"split_type":[0,0,0,0,0,0,0,0,0,0,0,0,0,0,0,0,0,0,0,0,0,0,0,0,0,0,0,0,0,0,0],"sum_hessian":[2.3732E4,1.2651E4,1.1081E4,5.133E3,7.518E3,9.979E3,1.102E3,1.568E3,3.565E3,7.246E3,2.72E2,7.016E3,2.963E3,9.98E2,1.04E2,1.562E3,6E0,3.55E3,1.5E1,7.01E3,2.36E2,2.33E2,3.9E1,6.575E3,4.41E2,2.758E3,2.05E2,6.61E2,3.37E2,9.7E1,7E0],"tree_param":{"num_deleted":"0","num_feature":"28","num_nodes":"31","size_leaf_vector":"1"}},{"base_weights":[-9.33899E-3,-4.745208E0,7.3448586E0,-8.121927E0,-2.3553703E0,5.4042287E0,2.143545E1,-6.0608034E0,-8.044966E0,-3.3987007E0,2.4061903E-1,3.3862925E0,9.738968E0,1.8982147E1,3.2778072E1,-5.8180493E-1,-3.4159264E-1,-1.8301728E-1,2.0145297E-1,-2.1170764E0,1.9951206E-2,6.3158077E-1,1.4453086E-1,9.0155745E-1,4.385059E-1,8.7998104E-1,1.5326958E0,1.3746399E0,1.9768618E0],"categories":[],"categories_nodes":[],"categories_segments":[],"categories_sizes":[],"default_left":[0,0,0,0,0,0,0,0,0,0,0,0,0,0,0,0,0,0,0,0,0,0,0,0,0,0,0,0,0],"id":35,"left_children":[1,3,5,7,9,11,13,-1,15,17,19,21,23,25,27,-1,-1,-1,-1,-1,-1,-1,-1,-1,-1,-1,-1,-1,-1],"loss_changes":[8.280467E5,1.1668122E5,2.5453125E5,5.112253E4,2.2943184E4,7.1574016E4,3.0712844E4,0E0,2.6006375E4,1.1756797E4,1.6380082E4,2.5563727E4,2.0716547E4,1.4427219E4,5.988578E3,0E0,0E0,0E0,0E0,0E0,0E0,0E0,0E0,0E0,0E0,0E0,0E0,0E0,0E0],"parents":[2147483647,0,0,1,1,2,2,3,3,4,4,5,5,6,6,8,8,9,9,10,10,11,11,12,12,13,13,14,14],"right_children":[2,4,6,8,10,12,14,-1,16,18,20,22,24,26,28,-1,-1,-1,-1,-1,-1,-1,-1,-1,-1,-1,-1,-1,-1],"split_conditions":[6.35E2,5.98E2,7.1E2,2E1,9.6E1,6.7E2,1.7E2,-6.0608034E0,5.65E2,1E0,5.7E2,6.35E2,6.7E2,1E0,7.5E2,-5.8180493E-1,-3.4159264E-1,-1.8301728E-1,2.0145297E-1,-2.1170764E0,1.9951206E-2,6.3158077E-1,1.4453086E-1,9.0155745E-1,4.385059E-1,8.7998104E-1,1.5326958E0,1.3746399E0,1.9768618E0],"split_indices":[2,2,2,9,9,2,8,0,5,15,5,3,3,15,3,0,0,0,0,0,0,0,0,0,0,0,0,0,0],"split_type":[0,0,0,0,0,0,0,0,0,0,0,0,0,0,0,0,0,0,0,0,0,0,0,0,0,0,0,0,0],"sum_hessian":[2.3773E4,1.4461E4,9.312E3,5.992E3,8.469E3,8.186E3,1.126E3,3E0,5.989E3,6.041E3,2.428E3,5.587E3,2.599E3,9.28E2,1.98E2,1.51E3,4.479E3,5.836E3,2.05E2,8E0,2.42E3,2.83E2,5.304E3,2.7E2,2.329E3,8.32E2,9.6E1,1.14E2,8.4E1],"tree_param":{"num_deleted":"0","num_feature":"28","num_nodes":"29","size_leaf_vector":"1"}},{"base_weights":[-1.6649168E-2,-3.4129343E0,8.592325E0,-6.1750135E0,-1.279115E-1,6.629979E0,2.0793406E1,-9.409503E0,-4.379671E0,-1.423407E0,1.2613763E0,4.742432E0,1.0134033E1,1.8171904E1,3.020835E1,-4.8560476E-1,2.554E-1,-2.2354598E-1,9.6516323E-1,-2.5984247E0,-6.548415E-2,3.1919222E-2,1.8897234E-1,2.2572935E-1,1.5575515E0,8.5084623E-1,4.2641282E-1,1.1311666E0,7.683433E-1,1.3682076E0,2.3058276E0],"categories":[],"categories_nodes":[],"categories_segments":[],"categories_sizes":[],"default_left":[0,0,0,0,0,0,0,0,0,0,0,0,0,0,0,0,0,0,0,0,0,0,0,0,0,0,0,0,0,0,0],"id":36,"left_children":[1,3,5,7,9,11,13,15,17,19,21,23,25,27,29,-1,-1,-1,-1,-1,-1,-1,-1,-1,-1,-1,-1,-1,-1,-1,-1],"loss_changes":[6.9412025E5,1.5446322E5,1.606479E5,5.3655188E4,1.3999046E4,3.822011E4,2.23805E4,1.4548406E4,1.2934836E4,2.3041754E4,5.8828496E3,2.2483758E4,2.2223188E4,8.7484375E3,7.7957656E3,0E0,0E0,0E0,0E0,0E0,0E0,0E0,0E0,0E0,0E0,0E0,0E0,0E0,0E0,0E0,0E0],"parents":[2147483647,0,0,1,1,2,2,3,3,4,4,5,5,6,6,7,7,8,8,9,9,10,10,11,11,12,12,13,13,14,14],"right_children":[2,4,6,8,10,12,14,16,18,20,22,24,26,28,30,-1,-1,-1,-1,-1,-1,-1,-1,-1,-1,-1,-1,-1,-1,-1,-1],"split_conditions":[6.45E2,6.075E2,7.15E2,5.875E2,6.3E2,6.8E2,7.7E2,9.6E1,1.3E2,5.7E2,1.06E2,1.75E2,6.8E2,7.2E2,8.2E2,-4.8560476E-1,2.554E-1,-2.2354598E-1,9.6516323E-1,-2.5984247E0,-6.548415E-2,3.1919222E-2,1.8897234E-1,2.2572935E-1,1.5575515E0,8.5084623E-1,4.2641282E-1,1.1311666E0,7.683433E-1,1.3682076E0,2.3058276E0],"split_indices":[2,2,2,2,2,2,2,11,11,6,9,9,4,4,2,0,0,0,0,0,0,0,0,0,0,0,0,0,0,0,0],"split_type":[0,0,0,0,0,0,0,0,0,0,0,0,0,0,0,0,0,0,0,0,0,0,0,0,0,0,0,0,0,0,0],"sum_hessian":[2.3738E4,1.7023E4,6.715E3,9.247E3,7.776E3,5.786E3,9.29E2,3.299E3,5.948E3,4.024E3,3.752E3,3.762E3,2.024E3,7.29E2,2E2,3.232E3,6.7E1,5.926E3,2.2E1,8E0,4.016E3,3.009E3,7.43E2,3.731E3,3.1E1,3.81E2,1.643E3,2.79E2,4.5E2,1.72E2,2.8E1],"tree_param":{"num_deleted":"0","num_feature":"28","num_nodes":"31","size_leaf_vector":"1"}},{"base_weights":[-4.664609E-2,-3.1541822E0,8.914973E0,-6.283348E0,-1.8924975E-1,6.8814545E0,2.0160069E1,-9.1873865E0,-4.7311583E0,-7.919422E-1,3.776823E0,6.443498E0,2.0361174E1,1.779846E1,3.050243E1,-4.7382995E-1,6.712366E-1,-2.4470428E-1,7.2266646E-2,-8.217711E-2,7.214522E-2,8.7134755E-1,1.5184139E-1,2.313575E-1,4.630428E-1,9.217448E-1,1.8377514E0,8.31781E-1,1.4802501E0,1.319382E0,1.9868885E0],"categories":[],"categories_nodes":[],"categories_segments":[],"categories_sizes":[],"default_left":[0,0,0,0,0,0,0,0,0,0,0,0,0,0,0,0,0,0,0,0,0,0,0,0,0,0,0,0,0,0,0],"id":37,"left_children":[1,3,5,7,9,11,13,15,17,19,21,23,25,27,29,-1,-1,-1,-1,-1,-1,-1,-1,-1,-1,-1,-1,-1,-1,-1,-1],"loss_changes":[6.593398E5,1.6309867E5,1.3924562E5,3.850325E4,2.1581326E4,3.0341219E4,2.2221125E4,1.9600484E4,5.6200156E3,1.4919719E4,1.1967172E4,2.5552047E4,4.4106406E3,9.945984E3,5.454625E3,0E0,0E0,0E0,0E0,0E0,0E0,0E0,0E0,0E0,0E0,0E0,0E0,0E0,0E0,0E0,0E0],"parents":[2147483647,0,0,1,1,2,2,3,3,4,4,5,5,6,6,7,7,8,8,9,9,10,10,11,11,12,12,13,13,14,14],"right_children":[2,4,6,8,10,12,14,16,18,20,22,24,26,28,30,-1,-1,-1,-1,-1,-1,-1,-1,-1,-1,-1,-1,-1,-1,-1,-1],"split_conditions":[6.5E2,6.05E2,7.15E2,5.85E2,1.06E2,1.6E2,7.75E2,1.025E2,1.025E2,6.4E2,6.025E2,6.8E2,1.85E2,1.85E2,8.1E2,-4.7382995E-1,6.712366E-1,-2.4470428E-1,7.2266646E-2,-8.217711E-2,7.214522E-2,8.7134755E-1,1.5184139E-1,2.313575E-1,4.630428E-1,9.217448E-1,1.8377514E0,8.31781E-1,1.4802501E0,1.319382E0,1.9868885E0],"split_indices":[2,2,2,2,9,8,2,11,10,2,4,2,10,8,2,0,0,0,0,0,0,0,0,0,0,0,0,0,0,0,0],"split_type":[0,0,0,0,0,0,0,0,0,0,0,0,0,0,0,0,0,0,0,0,0,0,0,0,0,0,0,0,0,0,0],"sum_hessian":[2.3674E4,1.7579E4,6.095E3,8.552E3,9.027E3,5.163E3,9.32E2,2.977E3,5.575E3,7.837E3,1.19E3,5.002E3,1.61E2,7.61E2,1.71E2,2.94E3,3.7E1,5.432E3,1.43E2,5.675E3,2.162E3,6E1,1.13E3,3.043E3,1.959E3,1.46E2,1.5E1,6.95E2,6.6E1,1.21E2,5E1],"tree_param":{"num_deleted":"0","num_feature":"28","num_nodes":"31","size_leaf_vector":"1"}},{"base_weights":[4.0943917E-2,-2.9598331E0,8.534159E0,-5.7351665E0,1.4226864E-1,6.965515E0,2.057491E1,-9.602882E0,-4.7186093E0,-1.8712685E-1,7.658643E0,5.7248464E0,1.2445832E1,1.772581E1,3.0212357E1,-4.9858347E-1,8.308795E-1,-2.3927477E-1,1.5234238E0,-1.9115409E0,-5.9827412E-3,3.4552082E-1,2.1471212E0,2.062399E-1,4.3107897E-1,5.981825E-1,1.7833294E0,8.358306E-1,1.6297423E0,1.4389148E0,2.4469426E0],"categories":[],"categories_nodes":[],"categories_segments":[],"categories_sizes":[],"default_left":[0,0,0,0,0,0,0,0,0,0,0,0,0,0,0,0,0,0,0,0,0,0,0,0,0,0,0,0,0,0,0],"id":38,"left_children":[1,3,5,7,9,11,13,15,17,19,21,23,25,27,29,-1,-1,-1,-1,-1,-1,-1,-1,-1,-1,-1,-1,-1,-1,-1,-1],"loss_changes":[6.034913E5,1.506417E5,1.1660634E5,3.6257312E4,2.0463195E4,3.7118406E4,1.8990625E4,1.8737953E4,1.7348969E4,2.0298275E4,8.839211E3,2.0643688E4,1.0846891E4,7.7136562E3,2.8764062E3,0E0,0E0,0E0,0E0,0E0,0E0,0E0,0E0,0E0,0E0,0E0,0E0,0E0,0E0,0E0,0E0],"parents":[2147483647,0,0,1,1,2,2,3,3,4,4,5,5,6,6,7,7,8,8,9,9,10,10,11,11,12,12,13,13,14,14],"right_children":[2,4,6,8,10,12,14,16,18,20,22,24,26,28,30,-1,-1,-1,-1,-1,-1,-1,-1,-1,-1,-1,-1,-1,-1,-1,-1],"split_conditions":[6.5E2,6.075E2,7.25E2,5.8E2,1.25E2,1.3E2,1.7E2,5.98E2,1.65E2,5.7E2,2.1E2,6.8E2,2.1E2,8E2,8.35E2,-4.9858347E-1,8.308795E-1,-2.3927477E-1,1.5234238E0,-1.9115409E0,-5.9827412E-3,3.4552082E-1,2.1471212E0,2.062399E-1,4.3107897E-1,5.981825E-1,1.7833294E0,8.358306E-1,1.6297423E0,1.4389148E0,2.4469426E0],"split_indices":[2,2,2,2,8,8,8,3,9,4,8,2,9,2,2,0,0,0,0,0,0,0,0,0,0,0,0,0,0,0,0],"split_type":[0,0,0,0,0,0,0,0,0,0,0,0,0,0,0,0,0,0,0,0,0,0,0,0,0,0,0,0,0,0,0],"sum_hessian":[2.3677E4,1.7496E4,6.181E3,9.234E3,8.262E3,5.47E3,7.11E2,1.92E3,7.314E3,7.916E3,3.46E2,4.462E3,1.008E3,5.51E2,1.6E2,1.894E3,2.6E1,7.301E3,1.3E1,1.3E1,7.903E3,3.4E2,6E0,2.876E3,1.586E3,9.89E2,1.9E1,5.18E2,3.3E1,1.51E2,9E0],"tree_param":{"num_deleted":"0","num_feature":"28","num_nodes":"31","size_leaf_vector":"1"}},{"base_weights":[6.814854E-2,-2.7128053E0,8.017933E0,-5.551095E0,-1.9721217E-2,6.191734E0,1.8165867E1,-9.001717E0,-4.5633326E0,-3.8326687E-1,6.991954E0,1.5270239E1,5.50755E0,1.5011079E1,2.544966E1,-4.7052225E-1,7.9970074E-1,-2.3676245E-1,1.1798121E-1,-3.0754015E-2,5.041927E-1,3.1227982E-1,8.7328595E-1,6.708685E-1,1.5908406E0,1.8382767E-1,4.0676066E-1,1.0026816E0,5.7964724E-1,1.1340909E0,1.7759126E0],"categories":[],"categories_nodes":[],"categories_segments":[],"categories_sizes":[],"default_left":[0,0,0,0,0,0,0,0,0,0,0,0,0,0,0,0,0,0,0,0,0,0,0,0,0,0,0,0,0,0,0],"id":39,"left_children":[1,3,5,7,9,11,13,15,17,19,21,23,25,27,29,-1,-1,-1,-1,-1,-1,-1,-1,-1,-1,-1,-1,-1,-1,-1,-1],"loss_changes":[5.249785E5,1.34466E5,1.1392222E5,2.9145031E4,2.3012326E4,3.2310219E4,2.1151875E4,1.9609594E4,7.9400625E3,2.0829852E4,3.3577031E3,1.0740891E4,2.3313156E4,1.1075828E4,7.0241406E3,0E0,0E0,0E0,0E0,0E0,0E0,0E0,0E0,0E0,0E0,0E0,0E0,0E0,0E0,0E0,0E0],"parents":[2147483647,0,0,1,1,2,2,3,3,4,4,5,5,6,6,7,7,8,8,9,9,10,10,11,11,12,12,13,13,14,14],"right_children":[2,4,6,8,10,12,14,16,18,20,22,24,26,28,30,-1,-1,-1,-1,-1,-1,-1,-1,-1,-1,-1,-1,-1,-1,-1,-1],"split_conditions":[6.5E2,6.05E2,7.15E2,5.8E2,1E0,6.5E2,7.6E2,5.98E2,1.025E2,1.375E2,6.58E2,1.7E2,6.8E2,7.2E2,2.2E2,-4.7052225E-1,7.9970074E-1,-2.3676245E-1,1.1798121E-1,-3.0754015E-2,5.041927E-1,3.1227982E-1,8.7328595E-1,6.708685E-1,1.5908406E0,1.8382767E-1,4.0676066E-1,1.0026816E0,5.7964724E-1,1.1340909E0,1.7759126E0],"split_indices":[2,2,2,2,15,3,2,3,10,8,7,8,2,4,10,0,0,0,0,0,0,0,0,0,0,0,0,0,0,0,0],"split_type":[0,0,0,0,0,0,0,0,0,0,0,0,0,0,0,0,0,0,0,0,0,0,0,0,0,0,0,0,0,0,0],"sum_hessian":[2.3744E4,1.7591E4,6.153E3,8.564E3,9.027E3,5.216E3,9.37E2,1.904E3,6.66E3,8.583E3,4.44E2,3.64E2,4.852E3,6.56E2,2.81E2,1.874E3,3E1,6.499E3,1.61E2,8.398E3,1.85E2,4.16E2,2.8E1,3.29E2,3.5E1,2.861E3,1.991E3,2.63E2,3.93E2,2.23E2,5.8E1],"tree_param":{"num_deleted":"0","num_feature":"28","num_nodes":"31","size_leaf_vector":"1"}},{"base_weights":[-1.01078704E-1,-2.3918054E0,8.797559E0,-4.7216673E0,9.4012034E-1,7.02113E0,1.9172016E1,-5.785835E0,-4.6811185E0,-3.2295338E1,1.0045149E0,1.2341235E1,6.035634E0,1.6846024E1,2.938031E1,-3.8152787E-1,-1.7237636E-1,-6.463039E0,1.3380432E-1,3.432556E-2,3.1627193E-1,5.790711E-1,2.0751894E0,1.637343E-1,4.0463686E-1,7.9863185E-1,1.6139959E0,1.280053E0,1.7029635E0],"categories":[],"categories_nodes":[],"categories_segments":[],"categories_sizes":[],"default_left":[0,0,0,0,0,0,0,0,0,0,0,0,0,0,0,0,0,0,0,0,0,0,0,0,0,0,0,0,0],"id":40,"left_children":[1,3,5,7,9,11,13,-1,15,17,19,21,23,25,27,-1,-1,-1,-1,-1,-1,-1,-1,-1,-1,-1,-1,-1,-1],"loss_changes":[4.8261725E5,1.4617448E5,8.918E4,4.927078E4,1.6601066E4,2.162211E4,1.6292984E4,0E0,4.0274344E4,5.1274496E4,1.3080341E4,1.3806914E4,1.9817852E4,7.2650625E3,1.397E3,0E0,0E0,0E0,0E0,0E0,0E0,0E0,0E0,0E0,0E0,0E0,0E0,0E0,0E0],"parents":[2147483647,0,0,1,1,2,2,3,3,4,4,5,5,6,6,8,8,9,9,10,10,11,11,12,12,13,13,14,14],"right_children":[2,4,6,8,10,12,14,-1,16,18,20,22,24,26,28,-1,-1,-1,-1,-1,-1,-1,-1,-1,-1,-1,-1,-1,-1],"split_conditions":[6.55E2,6.2E2,7.25E2,2E1,5.7E2,6.58E2,1.75E2,-5.785835E0,5.875E2,5.925E2,1E0,2.1E2,6.8E2,8.05E2,2.25E2,-3.8152787E-1,-1.7237636E-1,-6.463039E0,1.3380432E-1,3.432556E-2,3.1627193E-1,5.790711E-1,2.0751894E0,1.637343E-1,4.0463686E-1,7.9863185E-1,1.6139959E0,1.280053E0,1.7029635E0],"split_indices":[2,2,2,9,4,4,8,0,2,3,15,8,2,2,9,0,0,0,0,0,0,0,0,0,0,0,0,0,0],"split_type":[0,0,0,0,0,0,0,0,0,0,0,0,0,0,0,0,0,0,0,0,0,0,0,0,0,0,0,0,0],"sum_hessian":[2.3674E4,1.8828E4,4.846E3,1.108E4,7.748E3,4.139E3,7.07E2,3E0,1.1077E4,1.4E1,7.734E3,6.45E2,3.494E3,5.78E2,1.29E2,3.265E3,7.812E3,3E0,1.1E1,7.299E3,4.35E2,6.3E2,1.5E1,1.493E3,2.001E3,5.49E2,2.9E1,7.5E1,5.4E1],"tree_param":{"num_deleted":"0","num_feature":"28","num_nodes":"29","size_leaf_vector":"1"}},{"base_weights":[6.269378E-2,-3.4989564E0,5.5409446E0,-5.264181E0,-9.397059E-1,3.8581803E0,1.4125136E1,-7.9586143E0,-3.9572403E0,-1.022554E0,3.3828743E1,3.6165636E0,2.0480047E1,1.1493055E1,2.081771E1,-3.889604E-1,-1.6815636E0,-2.0791422E-1,1.1933265E-1,-6.289544E-2,4.4906387E-1,1.1432403E0,2.0727427E0,1.03043936E-1,2.9268703E-1,8.375296E-1,1.7080694E0,9.627785E-1,4.892629E-1,9.704692E-1,1.787814E0],"categories":[],"categories_nodes":[],"categories_segments":[],"categories_sizes":[],"default_left":[0,0,0,0,0,0,0,0,0,0,0,0,0,0,0,0,0,0,0,0,0,0,0,0,0,0,0,0,0,0,0],"id":41,"left_children":[1,3,5,7,9,11,13,15,17,19,21,23,25,27,29,-1,-1,-1,-1,-1,-1,-1,-1,-1,-1,-1,-1,-1,-1,-1,-1],"loss_changes":[4.6392853E5,6.5086797E4,1.3525884E5,2.9990078E4,1.696418E4,3.137621E4,2.678425E4,1.2540359E4,7.336711E3,1.382805E4,1.9055469E2,2.6862664E4,5.117004E3,1.44325625E4,8.367E3,0E0,0E0,0E0,0E0,0E0,0E0,0E0,0E0,0E0,0E0,0E0,0E0,0E0,0E0,0E0,0E0],"parents":[2147483647,0,0,1,1,2,2,3,3,4,4,5,5,6,6,7,7,8,8,9,9,10,10,11,11,12,12,13,13,14,14],"right_children":[2,4,6,8,10,12,14,16,18,20,22,24,26,28,30,-1,-1,-1,-1,-1,-1,-1,-1,-1,-1,-1,-1,-1,-1,-1,-1],"split_conditions":[6.35E2,8.6E1,7E2,5.85E2,6.75E2,1.7E2,7.45E2,1E0,1E0,1.4E2,7E2,6.58E2,2.1E2,7E2,8.15E2,-3.889604E-1,-1.6815636E0,-2.0791422E-1,1.1933265E-1,-6.289544E-2,4.4906387E-1,1.1432403E0,2.0727427E0,1.03043936E-1,2.9268703E-1,8.375296E-1,1.7080694E0,9.627785E-1,4.892629E-1,9.704692E-1,1.787814E0],"split_indices":[2,9,2,2,3,8,2,18,15,8,3,2,8,3,2,0,0,0,0,0,0,0,0,0,0,0,0,0,0,0,0],"split_type":[0,0,0,0,0,0,0,0,0,0,0,0,0,0,0,0,0,0,0,0,0,0,0,0,0,0,0,0,0,0,0],"sum_hessian":[2.3775E4,1.4408E4,9.367E3,8.526E3,5.882E3,7.833E3,1.534E3,2.783E3,5.743E3,5.869E3,1.3E1,7.722E3,1.11E2,1.103E3,4.31E2,2.765E3,1.8E1,5.567E3,1.76E2,5.735E3,1.34E2,7E0,6E0,4.556E3,3.166E3,8.9E1,2.2E1,1.97E2,9.06E2,3.96E2,3.5E1],"tree_param":{"num_deleted":"0","num_feature":"28","num_nodes":"31","size_leaf_vector":"1"}},{"base_weights":[-4.334121E-2,-3.228807E0,5.2365823E0,-5.7225976E0,-1.534926E0,3.8460488E0,1.4120656E1,-5.8456845E0,1.8892426E1,-1.8885049E0,3.068866E0,2.4612577E0,6.7374163E0,1.0456725E1,1.8632784E1,-4.088287E-1,-2.412722E-1,-1.9724427E-1,1.1288408E0,-1.4643723E0,-9.139239E-2,1.0787698E0,1.1171484E-1,4.8894045E-1,1.0254618E-1,7.3910666E-1,2.88635E-1,7.895706E-1,2.5605914E-1,8.610055E-1,1.5146234E0],"categories":[],"categories_nodes":[],"categories_segments":[],"categories_sizes":[],"default_left":[0,0,0,0,0,0,0,0,0,0,0,0,0,0,0,0,0,0,0,0,0,0,0,0,0,0,0,0,0,0,0],"id":42,"left_children":[1,3,5,7,9,11,13,15,17,19,21,23,25,27,29,-1,-1,-1,-1,-1,-1,-1,-1,-1,-1,-1,-1,-1,-1,-1,-1],"loss_changes":[3.990975E5,6.2505516E4,1.10242E5,1.8240203E4,1.4354293E4,3.089725E4,1.9761422E4,1.4120203E4,2.622627E3,1.3537236E4,9.654781E3,1.5656822E4,1.930657E4,1.8950727E4,8.349125E3,0E0,0E0,0E0,0E0,0E0,0E0,0E0,0E0,0E0,0E0,0E0,0E0,0E0,0E0,0E0,0E0],"parents":[2147483647,0,0,1,1,2,2,3,3,4,4,5,5,6,6,7,7,8,8,9,9,10,10,11,11,12,12,13,13,14,14],"right_children":[2,4,6,8,10,12,14,16,18,20,22,24,26,28,30,-1,-1,-1,-1,-1,-1,-1,-1,-1,-1,-1,-1,-1,-1,-1,-1],"split_conditions":[6.4E2,5.98E2,7.05E2,1.11E2,1.06E2,6.7E2,7.325E2,5.75E2,9.6E1,5.7E2,5.98E2,6.4E2,6.7E2,7.15E2,8.05E2,-4.088287E-1,-2.412722E-1,-1.9724427E-1,1.1288408E0,-1.4643723E0,-9.139239E-2,1.0787698E0,1.1171484E-1,4.8894045E-1,1.0254618E-1,7.3910666E-1,2.88635E-1,7.895706E-1,2.5605914E-1,8.610055E-1,1.5146234E0],"split_indices":[2,2,2,11,8,2,2,2,8,4,6,3,3,4,2,0,0,0,0,0,0,0,0,0,0,0,0,0,0,0,0],"split_type":[0,0,0,0,0,0,0,0,0,0,0,0,0,0,0,0,0,0,0,0,0,0,0,0,0,0,0,0,0,0,0],"sum_hessian":[2.3727E4,1.4799E4,8.928E3,5.985E3,8.814E3,7.721E3,1.207E3,5.956E3,2.9E1,8.186E3,6.28E2,5.222E3,2.499E3,6.68E2,5.39E2,1.811E3,4.145E3,4E0,2.5E1,1.7E1,8.169E3,2.6E1,6.02E2,2.76E2,4.946E3,2.66E2,2.233E3,3.33E2,3.35E2,4.83E2,5.6E1],"tree_param":{"num_deleted":"0","num_feature":"28","num_nodes":"31","size_leaf_vector":"1"}},{"base_weights":[-4.923214E-2,-2.5431838E0,6.238974E0,-4.6859913E0,-2.2483276E-1,4.6717443E0,1.4028772E1,-3.6991787E0,-4.638197E0,-3.4794763E-1,1.7560352E1,4.4766874E0,2.290954E1,1.2012713E1,2.1871096E1,-3.9700988E-1,-1.895622E-1,-7.005485E-2,6.02262E-2,1.3567499E0,1.8213502E-1,1.6883771E-1,3.3771393E-1,9.5216703E-1,1.9949789E0,7.576714E-1,2.8182992E-1,9.866166E-1,1.7439464E0],"categories":[],"categories_nodes":[],"categories_segments":[],"categories_sizes":[],"default_left":[0,0,0,0,0,0,0,0,0,0,0,0,0,0,0,0,0,0,0,0,0,0,0,0,0,0,0,0,0],"id":43,"left_children":[1,3,5,7,9,11,13,-1,15,17,19,21,23,25,27,-1,-1,-1,-1,-1,-1,-1,-1,-1,-1,-1,-1,-1,-1],"loss_changes":[3.714379E5,8.424506E4,8.203883E4,2.8806406E4,1.7836344E4,1.9808805E4,1.7523047E4,0E0,2.4596844E4,1.3232079E4,7.348135E3,1.38584375E4,3.0862344E3,1.7887133E4,5.6553906E3,0E0,0E0,0E0,0E0,0E0,0E0,0E0,0E0,0E0,0E0,0E0,0E0,0E0,0E0],"parents":[2147483647,0,0,1,1,2,2,3,3,4,4,5,5,6,6,8,8,9,9,10,10,11,11,12,12,13,13,14,14],"right_children":[2,4,6,8,10,12,14,-1,16,18,20,22,24,26,28,-1,-1,-1,-1,-1,-1,-1,-1,-1,-1,-1,-1,-1,-1],"split_conditions":[6.45E2,8.6E1,7.1E2,2E1,1.6E2,1.8E2,7.65E2,-3.6991787E0,5.8E2,6.3E2,6.125E2,6.8E2,2.25E2,7.4E2,8.2E2,-3.9700988E-1,-1.895622E-1,-7.005485E-2,6.02262E-2,1.3567499E0,1.8213502E-1,1.6883771E-1,3.3771393E-1,9.5216703E-1,1.9949789E0,7.576714E-1,2.8182992E-1,9.866166E-1,1.7439464E0],"split_indices":[2,9,2,9,9,9,2,0,2,2,5,2,9,4,2,0,0,0,0,0,0,0,0,0,0,0,0,0,0],"split_type":[0,0,0,0,0,0,0,0,0,0,0,0,0,0,0,0,0,0,0,0,0,0,0,0,0,0,0,0,0],"sum_hessian":[2.3683E4,1.6958E4,6.725E3,8.812E3,8.146E3,5.6E3,1.125E3,5E0,8.807E3,8.091E3,5.5E1,5.542E3,5.8E1,8.97E2,2.28E2,1.796E3,7.011E3,4.821E3,3.27E3,3.2E1,2.3E1,3.739E3,1.803E3,4.9E1,9E0,6E2,2.97E2,1.98E2,3E1],"tree_param":{"num_deleted":"0","num_feature":"28","num_nodes":"29","size_leaf_vector":"1"}},{"base_weights":[1.5938362E-2,-1.8932643E0,6.451814E0,-3.8629556E0,8.670679E-1,5.2882886E0,1.7949558E1,-4.1481876E0,6.097951E0,5.086698E-1,6.0873814E0,4.5351143E0,1.1299022E1,1.5219657E1,2.6928362E1,-3.565261E-1,-1.7520815E-1,3.89619E-1,-1.1256953E-1,-1.2864113E-2,1.0067721E-1,-1.3410184E-1,3.458309E-1,1.7744665E-1,4.2915225E-1,4.1945463E-1,7.158468E-1,7.01091E-1,1.47117E0,1.6060374E0,1.1497005E0],"categories":[],"categories_nodes":[],"categories_segments":[],"categories_sizes":[],"default_left":[0,0,0,0,0,0,0,0,0,0,0,0,0,0,0,0,0,0,0,0,0,0,0,0,0,0,0,0,0,0,0],"id":44,"left_children":[1,3,5,7,9,11,13,15,17,19,21,23,25,27,29,-1,-1,-1,-1,-1,-1,-1,-1,-1,-1,-1,-1,-1,-1,-1,-1],"loss_changes":[2.9190147E5,9.961618E4,7.260245E4,3.0402094E4,1.4268957E4,2.2291266E4,1.18001875E4,1.9935344E4,4.2362305E3,8.232553E3,3.5839062E3,1.7484336E4,4.6898125E3,6.116008E3,1.5831484E3,0E0,0E0,0E0,0E0,0E0,0E0,0E0,0E0,0E0,0E0,0E0,0E0,0E0,0E0,0E0,0E0],"parents":[2147483647,0,0,1,1,2,2,3,3,4,4,5,5,6,6,7,7,8,8,9,9,10,10,11,11,12,12,13,13,14,14],"right_children":[2,4,6,8,10,12,14,16,18,20,22,24,26,28,30,-1,-1,-1,-1,-1,-1,-1,-1,-1,-1,-1,-1,-1,-1,-1,-1],"split_conditions":[1.1E2,6.2E2,1.6E2,1E0,1E0,1E0,2.1E2,5.8E2,1E0,6.45E2,6.075E2,1.4E2,1.25E2,8E2,6.58E2,-3.565261E-1,-1.7520815E-1,3.89619E-1,-1.1256953E-1,-1.2864113E-2,1.0067721E-1,-1.3410184E-1,3.458309E-1,1.7744665E-1,4.2915225E-1,4.1945463E-1,7.158468E-1,7.01091E-1,1.47117E0,1.6060374E0,1.1497005E0],"split_indices":[9,3,9,15,15,22,9,3,18,3,6,11,9,3,6,0,0,0,0,0,0,0,0,0,0,0,0,0,0,0,0],"split_type":[0,0,0,0,0,0,0,0,0,0,0,0,0,0,0,0,0,0,0,0,0,0,0,0,0,0,0,0,0,0,0],"sum_hessian":[2.3754E4,1.832E4,5.434E3,1.0691E4,7.629E3,4.936E3,4.98E2,1.0394E4,2.97E2,7.14E3,4.89E2,4.388E3,5.48E2,3.84E2,1.14E2,1.844E3,8.55E3,2.47E2,5E1,4.732E3,2.408E3,4.2E1,4.47E2,3.53E3,8.58E2,2.81E2,2.67E2,3.56E2,2.8E1,4.6E1,6.8E1],"tree_param":{"num_deleted":"0","num_feature":"28","num_nodes":"31","size_leaf_vector":"1"}},{"base_weights":[1.2118373E-4,-2.0925646E0,5.9832993E0,-4.003289E0,7.8461245E-3,4.8429236E0,1.5438591E1,-6.7970405E0,-3.254507E0,-2.9105225E-1,5.6314187E0,3.8027782E0,9.20982E0,1.3563265E1,2.567863E1,-3.49889E-1,1.1736995E0,-1.7205076E-1,2.287638E-1,-1.66941E-2,1.8711748E0,5.396199E-1,1.8073043E-1,5.195397E-1,1.6742179E-1,5.58796E-1,1.6298245E-1,6.2899786E-1,1.3554473E0,1.0929031E0,1.4638413E0],"categories":[],"categories_nodes":[],"categories_segments":[],"categories_sizes":[],"default_left":[0,0,0,0,0,0,0,0,0,0,0,0,0,0,0,0,0,0,0,0,0,0,0,0,0,0,0,0,0,0,0],"id":45,"left_children":[1,3,5,7,9,11,13,15,17,19,21,23,25,27,29,-1,-1,-1,-1,-1,-1,-1,-1,-1,-1,-1,-1,-1,-1,-1,-1],"loss_changes":[2.965347E5,7.041952E4,6.608783E4,1.9193344E4,1.4054758E4,2.484068E4,1.2306344E4,1.19506875E4,1.059957E4,1.2816236E4,4.3462646E3,1.3206316E4,1.2275008E4,7.0980938E3,7.2296094E2,0E0,0E0,0E0,0E0,0E0,0E0,0E0,0E0,0E0,0E0,0E0,0E0,0E0,0E0,0E0,0E0],"parents":[2147483647,0,0,1,1,2,2,3,3,4,4,5,5,6,6,7,7,8,8,9,9,10,10,11,11,12,12,13,13,14,14],"right_children":[2,4,6,8,10,12,14,16,18,20,22,24,26,28,30,-1,-1,-1,-1,-1,-1,-1,-1,-1,-1,-1,-1,-1,-1,-1,-1],"split_conditions":[6.5E2,6.075E2,1.5E2,5.8E2,1E0,7E2,2.1E2,1.25E2,1E0,2.1E2,-7.0710677E-1,6.5E2,7.4E2,8E2,2.35E2,-3.49889E-1,1.1736995E0,-1.7205076E-1,2.287638E-1,-1.66941E-2,1.8711748E0,5.396199E-1,1.8073043E-1,5.195397E-1,1.6742179E-1,5.58796E-1,1.6298245E-1,6.2899786E-1,1.3554473E0,1.0929031E0,1.4638413E0],"split_indices":[2,2,8,2,15,2,9,11,15,8,0,3,7,3,9,0,0,0,0,0,0,0,0,0,0,0,0,0,0,0,0],"split_type":[0,0,0,0,0,0,0,0,0,0,0,0,0,0,0,0,0,0,0,0,0,0,0,0,0,0,0,0,0,0,0],"sum_hessian":[2.3681E4,1.7545E4,6.136E3,9.187E3,8.358E3,5.477E3,6.59E2,1.94E3,7.247E3,7.937E3,4.21E2,4.425E3,1.052E3,5.59E2,1E2,1.928E3,1.2E1,7.079E3,1.68E2,7.929E3,8E0,1.17E2,3.04E2,2.84E2,4.141E3,7.9E2,2.62E2,5.23E2,3.6E1,5.2E1,4.8E1],"tree_param":{"num_deleted":"0","num_feature":"28","num_nodes":"31","size_leaf_vector":"1"}},{"base_weights":[-4.053005E-2,-1.7595898E0,5.7869973E0,-3.5861318E0,8.0690074E-1,4.7476287E0,1.5917635E1,-3.867314E0,6.770887E0,4.342681E-1,6.3171425E0,3.9226995E0,1.0085916E1,1.3677182E1,2.3418673E1,-3.0460224E-1,-1.519091E-1,6.688645E-1,1.6793649E-1,-2.3075044E-2,5.662418E-2,2.3939078E-1,6.552133E-1,1.7706051E-1,5.788967E-1,4.6945736E-1,1.5856936E0,6.208863E-1,1.2654951E0,1.6265957E0,1.062416E0],"categories":[],"categories_nodes":[],"categories_segments":[],"categories_sizes":[],"default_left":[0,0,0,0,0,0,0,0,0,0,0,0,0,0,0,0,0,0,0,0,0,0,0,0,0,0,0,0,0,0,0],"id":46,"left_children":[1,3,5,7,9,11,13,15,17,19,21,23,25,27,29,-1,-1,-1,-1,-1,-1,-1,-1,-1,-1,-1,-1,-1,-1,-1,-1],"loss_changes":[2.3748173E5,8.581922E4,5.677322E4,3.1170812E4,1.5623568E4,2.1527195E4,8.097617E3,1.9184703E4,6.3261133E3,4.46087E3,4.931342E3,1.23485E4,9.55232E3,5.366039E3,1.5366641E3,0E0,0E0,0E0,0E0,0E0,0E0,0E0,0E0,0E0,0E0,0E0,0E0,0E0,0E0,0E0,0E0],"parents":[2147483647,0,0,1,1,2,2,3,3,4,4,5,5,6,6,7,7,8,8,9,9,10,10,11,11,12,12,13,13,14,14],"right_children":[2,4,6,8,10,12,14,16,18,20,22,24,26,28,30,-1,-1,-1,-1,-1,-1,-1,-1,-1,-1,-1,-1,-1,-1,-1,-1],"split_conditions":[1.06E2,6.2E2,1.6E2,1E0,1E0,1E0,1.85E2,5.85E2,-7.0710677E-1,6.4E2,6.55E2,1E0,1.95E2,8E2,6.8E2,-3.0460224E-1,-1.519091E-1,6.688645E-1,1.6793649E-1,-2.3075044E-2,5.662418E-2,2.3939078E-1,6.552133E-1,1.7706051E-1,5.788967E-1,4.6945736E-1,1.5856936E0,6.208863E-1,1.2654951E0,1.6265957E0,1.062416E0],"split_indices":[8,3,10,15,15,22,8,4,0,3,7,15,8,3,3,0,0,0,0,0,0,0,0,0,0,0,0,0,0,0,0],"split_type":[0,0,0,0,0,0,0,0,0,0,0,0,0,0,0,0,0,0,0,0,0,0,0,0,0,0,0,0,0,0,0],"sum_hessian":[2.3704E4,1.8305E4,5.399E3,1.0694E4,7.611E3,4.898E3,5.01E2,1.0412E4,2.82E2,7.13E3,4.81E2,4.244E3,6.54E2,3.88E2,1.13E2,2.825E3,7.587E3,9.5E1,1.87E2,3.123E3,4.007E3,3.94E2,8.7E1,4.044E3,2E2,6.35E2,1.9E1,3.52E2,3.6E1,1.9E1,9.4E1],"tree_param":{"num_deleted":"0","num_feature":"28","num_nodes":"31","size_leaf_vector":"1"}},{"base_weights":[-5.188649E-2,-2.60544E0,4.1547394E0,-4.0215282E0,-6.3281393E-1,3.2291124E0,1.2005838E1,-6.544869E0,-3.3300128E0,-8.463934E-1,1.0199834E1,1.5174818E0,4.977894E0,1.0984548E1,2.0490263E1,-3.171715E-1,-5.1511014E-1,-1.7649864E-1,1.9597615E-1,-3.8954258E-2,-1.2299144E0,4.0919217E-1,1.854311E0,4.044787E-1,5.4834146E-2,7.2562754E-1,2.2289431E-1,4.5032564E-1,8.5869426E-1,1.5180032E0,8.57068E-1],"categories":[],"categories_nodes":[],"categories_segments":[],"categories_sizes":[],"default_left":[0,0,0,0,0,0,0,0,0,0,0,0,0,0,0,0,0,0,0,0,0,0,0,0,0,0,0,0,0,0,0],"id":47,"left_children":[1,3,5,7,9,11,13,15,17,19,21,23,25,27,29,-1,-1,-1,-1,-1,-1,-1,-1,-1,-1,-1,-1,-1,-1,-1,-1],"loss_changes":[2.5411911E5,4.1116938E4,6.489325E4,1.49255625E4,1.423973E4,2.3920375E4,7.9216875E3,1.3204922E3,9.766648E3,9.616299E3,6.1239775E3,1.1164805E4,1.9530125E4,1.0152852E4,2.7611406E3,0E0,0E0,0E0,0E0,0E0,0E0,0E0,0E0,0E0,0E0,0E0,0E0,0E0,0E0,0E0,0E0],"parents":[2147483647,0,0,1,1,2,2,3,3,4,4,5,5,6,6,7,7,8,8,9,9,10,10,11,11,12,12,13,13,14,14],"right_children":[2,4,6,8,10,12,14,16,18,20,22,24,26,28,30,-1,-1,-1,-1,-1,-1,-1,-1,-1,-1,-1,-1,-1,-1,-1,-1],"split_conditions":[6.4E2,9E1,7.15E2,5.8E2,1.3E2,6.55E2,1E0,5.8E2,1E0,1.35E2,1.95E2,6.4E2,6.5E2,1.75E2,7.05E2,-3.171715E-1,-5.1511014E-1,-1.7649864E-1,1.9597615E-1,-3.8954258E-2,-1.2299144E0,4.0919217E-1,1.854311E0,4.044787E-1,5.4834146E-2,7.2562754E-1,2.2289431E-1,4.5032564E-1,8.5869426E-1,1.5180032E0,8.57068E-1],"split_indices":[2,10,2,2,10,2,15,5,15,11,10,3,3,10,3,0,0,0,0,0,0,0,0,0,0,0,0,0,0,0,0],"split_type":[0,0,0,0,0,0,0,0,0,0,0,0,0,0,0,0,0,0,0,0,0,0,0,0,0,0,0,0,0,0,0],"sum_hessian":[2.3655E4,1.472E4,8.935E3,8.568E3,6.152E3,7.994E3,9.41E2,1.841E3,6.727E3,6.034E3,1.18E2,4.041E3,3.953E3,8.42E2,9.9E1,1.75E3,9.1E1,6.547E3,1.8E2,6.018E3,1.6E1,1.11E2,7E0,2.42E2,3.799E3,2.03E2,3.75E3,6.4E2,2.02E2,2.3E1,7.6E1],"tree_param":{"num_deleted":"0","num_feature":"28","num_nodes":"31","size_leaf_vector":"1"}},{"base_weights":[4.1305177E-2,-1.5902464E0,6.2162437E0,-3.3796997E0,6.316066E-1,5.0966496E0,1.3720319E1,-5.42191E0,-2.4421608E0,-2.586177E1,6.9831675E-1,4.3727245E0,9.885148E0,1.1302452E1,2.0155716E1,-2.776061E-1,8.541406E-1,-1.2651609E-1,7.2376454E-1,-4.1222464E-2,-6.5969634E0,5.745413E-1,2.7894476E-2,2.2517608E-1,-1.6741961E0,9.4891024E-1,4.18349E-1,5.197234E-1,1.1484358E0,1.4091768E0,9.209836E-1],"categories":[],"categories_nodes":[],"categories_segments":[],"categories_sizes":[],"default_left":[0,0,0,0,0,0,0,0,0,0,0,0,0,0,0,0,0,0,0,0,0,0,0,0,0,0,0,0,0,0,0],"id":48,"left_children":[1,3,5,7,9,11,13,15,17,19,21,23,25,27,29,-1,-1,-1,-1,-1,-1,-1,-1,-1,-1,-1,-1,-1,-1,-1,-1],"loss_changes":[2.3861206E5,7.448806E4,4.1508203E4,1.9851156E4,1.4777219E4,1.4886852E4,9.7459375E3,9.653844E3,1.0640895E4,5.5598664E4,1.2624318E4,1.867975E4,7.627246E3,4.71259E3,1.8825469E3,0E0,0E0,0E0,0E0,0E0,0E0,0E0,0E0,0E0,0E0,0E0,0E0,0E0,0E0,0E0,0E0],"parents":[2147483647,0,0,1,1,2,2,3,3,4,4,5,5,6,6,7,7,8,8,9,9,10,10,11,11,12,12,13,13,14,14],"right_children":[2,4,6,8,10,12,14,16,18,20,22,24,26,28,30,-1,-1,-1,-1,-1,-1,-1,-1,-1,-1,-1,-1,-1,-1,-1,-1],"split_conditions":[6.55E2,6.15E2,1.5E2,5.875E2,5.7E2,7.15E2,1.85E2,6.3E2,1.55E2,5.65E2,6.025E2,7.6E2,7.15E2,8E2,6.4E2,-2.776061E-1,8.541406E-1,-1.2651609E-1,7.2376454E-1,-4.1222464E-2,-6.5969634E0,5.745413E-1,2.7894476E-2,2.2517608E-1,-1.6741961E0,9.4891024E-1,4.18349E-1,5.197234E-1,1.1484358E0,1.4091768E0,9.209836E-1],"split_indices":[2,2,8,2,7,2,8,3,8,7,3,4,3,3,5,0,0,0,0,0,0,0,0,0,0,0,0,0,0,0,0],"split_type":[0,0,0,0,0,0,0,0,0,0,0,0,0,0,0,0,0,0,0,0,0,0,0,0,0,0,0,0,0,0,0],"sum_hessian":[2.3682E4,1.8733E4,4.949E3,1.0376E4,8.357E3,4.308E3,6.41E2,3.263E3,7.113E3,2E1,8.337E3,3.744E3,5.64E2,4.68E2,1.73E2,3.245E3,1.8E1,7.077E3,3.6E1,1.7E1,3E0,1.06E2,8.231E3,3.732E3,1.2E1,7.9E1,4.85E2,4.36E2,3.2E1,2.8E1,1.45E2],"tree_param":{"num_deleted":"0","num_feature":"28","num_nodes":"31","size_leaf_vector":"1"}},{"base_weights":[3.732008E-2,-1.5246012E0,5.9938984E0,-2.7902822E0,1.0652483E0,4.9483805E0,1.2910434E1,-4.2469687E0,-2.7575548E0,9.922429E-1,4.1905514E1,3.3326447E0,7.5189495E0,1.07361765E1,1.9753487E1,-2.2533666E-1,-7.998689E-2,4.1743003E-2,6.059897E-1,1.0470006E0,3.1388056E0,2.2017737E-1,-1.7549058E-2,3.3530554E-1,7.3616016E-1,4.943163E-1,1.0792303E0,1.3054771E0,8.8389444E-1],"categories":[],"categories_nodes":[],"categories_segments":[],"categories_sizes":[],"default_left":[0,0,0,0,0,0,0,0,0,0,0,0,0,0,0,0,0,0,0,0,0,0,0,0,0,0,0,0,0],"id":49,"left_children":[1,3,5,7,9,11,13,-1,15,17,19,21,23,25,27,-1,-1,-1,-1,-1,-1,-1,-1,-1,-1,-1,-1,-1,-1],"loss_changes":[2.212349E5,6.1756637E4,3.565011E4,3.3745344E4,1.837791E4,1.7799883E4,9.413992E3,0E0,2.5610906E4,1.0797597E4,3.4567988E3,1.0409965E4,9.587914E3,4.325324E3,1.5613984E3,0E0,0E0,0E0,0E0,0E0,0E0,0E0,0E0,0E0,0E0,0E0,0E0,0E0,0E0],"parents":[2147483647,0,0,1,1,2,2,3,3,4,4,5,5,6,6,8,8,9,9,10,10,11,11,12,12,13,13,14,14],"right_children":[2,4,6,8,10,12,14,-1,16,18,20,22,24,26,28,-1,-1,-1,-1,-1,-1,-1,-1,-1,-1,-1,-1,-1,-1],"split_conditions":[6.55E2,1E2,1.5E2,2E1,1.85E2,6.85E2,1.9E2,-4.2469687E0,5.95E2,1.6E2,1.06E2,6.85E2,1E0,8E2,6.45E2,-2.2533666E-1,-7.998689E-2,4.1743003E-2,6.059897E-1,1.0470006E0,3.1388056E0,2.2017737E-1,-1.7549058E-2,3.3530554E-1,7.3616016E-1,4.943163E-1,1.0792303E0,1.3054771E0,8.8389444E-1],"split_indices":[2,9,8,9,10,2,8,0,2,8,11,5,15,3,6,0,0,0,0,0,0,0,0,0,0,0,0,0,0],"split_type":[0,0,0,0,0,0,0,0,0,0,0,0,0,0,0,0,0,0,0,0,0,0,0,0,0,0,0,0,0],"sum_hessian":[2.3777E4,1.8838E4,4.939E3,1.2654E4,6.184E3,4.292E3,6.47E2,4E0,1.265E4,6.174E3,1E1,2.637E3,1.655E3,4.93E2,1.54E2,5.037E3,7.613E3,6.089E3,8.5E1,6E0,4E0,2.043E3,5.94E2,1.489E3,1.66E2,4.59E2,3.4E1,3.5E1,1.19E2],"tree_param":{"num_deleted":"0","num_feature":"28","num_nodes":"29","size_leaf_vector":"1"}},{"base_weights":[-4.015126E-3,-1.6779613E0,4.771734E0,-3.2198968E0,1.4313863E-2,3.8412373E0,1.2704489E1,-4.779183E0,-2.35692E0,8.115677E0,-1.9594859E-1,3.153437E0,8.444204E0,1.0796702E1,1.8883678E1,-2.4471505E-1,8.144294E-1,3.5899636E-1,-1.2312297E-1,3.1377938E-1,1.0804261E0,-1.1907741E-2,1.2180718E0,1.3856672E0,1.5326813E-1,2.3177908E-1,5.966368E-1,1.1039034E0,5.0622946E-1,8.8946265E-1,1.6243079E0],"categories":[],"categories_nodes":[],"categories_segments":[],"categories_sizes":[],"default_left":[0,0,0,0,0,0,0,0,0,0,0,0,0,0,0,0,0,0,0,0,0,0,0,0,0,0,0,0,0,0,0],"id":50,"left_children":[1,3,5,7,9,11,13,15,17,19,21,23,25,27,29,-1,-1,-1,-1,-1,-1,-1,-1,-1,-1,-1,-1,-1,-1,-1,-1],"loss_changes":[1.8968038E5,4.5845836E4,4.539764E4,1.2355523E4,1.4275037E4,1.7421305E4,7.3966875E3,8.014414E3,5.973871E3,5.113995E3,8.457594E3,1.0278211E4,9.449535E3,3.5212227E3,1.6448789E3,0E0,0E0,0E0,0E0,0E0,0E0,0E0,0E0,0E0,0E0,0E0,0E0,0E0,0E0,0E0,0E0],"parents":[2147483647,0,0,1,1,2,2,3,3,4,4,5,5,6,6,7,7,8,8,9,9,10,10,11,11,12,12,13,13,14,14],"right_children":[2,4,6,8,10,12,14,16,18,20,22,24,26,28,30,-1,-1,-1,-1,-1,-1,-1,-1,-1,-1,-1,-1,-1,-1,-1,-1],"split_conditions":[6.5E2,6.075E2,1.5E2,5.875E2,6.075E2,7.1E2,2E2,6.3E2,5.86E2,1.25E2,2E2,5.98E2,-2.5881904E-1,6.4E2,8.35E2,-2.4471505E-1,8.144294E-1,3.5899636E-1,-1.2312297E-1,3.1377938E-1,1.0804261E0,-1.1907741E-2,1.2180718E0,1.3856672E0,1.5326813E-1,2.3177908E-1,5.966368E-1,1.1039034E0,5.0622946E-1,8.8946265E-1,1.6243079E0],"split_indices":[2,2,8,2,3,2,10,3,3,8,8,3,1,3,2,0,0,0,0,0,0,0,0,0,0,0,0,0,0,0,0],"split_type":[0,0,0,0,0,0,0,0,0,0,0,0,0,0,0,0,0,0,0,0,0,0,0,0,0,0,0,0,0,0,0],"sum_hessian":[2.3725E4,